Residue,0,1,2,3,4,5,6,7,8,9,10,11,12,13,14,15,16,17,18,19,20,21,22,23,24,25,26,27,28,29,30,31,32,33,34,35,36,37,38,39,40,41,42,43,44,45,46,47,48,49,50,51,52,53,54,55,56,57,58,59,60,61,62,63,64,65,66,67,68,69,70,71,72,73,74,75,76,77,78,79,80,81,82,83,84,85,86,87,88,89,90,91,92,93,94,95,96,97,98,99,100,101,102,103,104,105,106,107,108,109,110,111,112,113,114,115,116,117,118,119,120,121,122,123,124,125,126,127,128,129,130,131,132,133,134,135,136,137,138,139,140,141,142,143,144,145,146,147,148,149,150,151,152,153,154,155,156,157,158,159,160,161,162,163,164,165,166,167,168,169,170,171,172,173,174,175,176,177,178,179,180,181,182,183,184,185,186,187,188,189,190,191,192,193,194,195,196,197,198,199,200,201,202,203,204,205,206,207,208,209,210,211,212,213,214,215,216,217,218,219,220,221,222,223,224,225,226,227,228,229,230,231,232,233,234,235,236,237,238,239,240,241,242,243,244,245,246,247,248,249,250,251,252,253,254,255,256,257,258,259,260,261,262,263,264,265,266,267,268,269,270,271,272,273,274,275,276,277,278,279,280,281,282,283,284,285,286,287,288,289,290,291,292,293,294,295,296,297,298,299,300,301,302,303,304,305,306,307,308,309,310,311,312,313,314,315,316,317,318,319
M,0.5014229,0.23422283,-0.073601194,0.31539196,-0.054737486,0.13600342,-0.39812228,-0.44550627,3.6798418e-05,0.2350171,-0.22873682,-0.32825938,-0.2988182,-0.13627593,-0.31818658,-0.058706623,0.09193052,0.2611666,0.8510788,-0.26876393,-0.230612,-0.07361419,-0.19204734,0.06919423,-0.27156883,0.04943998,0.30419922,0.31654057,-0.26731277,0.024432976,-0.038802862,0.11302849,0.09932917,-0.12991197,0.14714052,-0.4642861,-0.56200635,-0.13309468,0.5978571,0.04983513,0.5137348,0.21130618,-0.24179226,0.044808388,-0.34746754,0.06455012,-0.784984,-0.07302676,-0.120897785,-0.5711299,-0.15178522,-0.4808564,0.36000618,-0.13873757,-0.34747472,-0.15842368,0.11558421,-0.45599377,0.16872063,0.12492946,-0.07395154,-0.03773512,-4.6530766,0.29091465,0.20344582,0.17969115,0.25207704,0.4294392,0.43426284,0.19388285,0.19377255,0.3873579,-0.038389053,-0.09455864,0.3543823,0.22903791,-0.18337817,-0.058057576,-0.2956624,-0.07656501,0.24365439,0.011578431,-0.552476,0.17541882,-0.0046591163,-0.53963774,-0.03566618,0.12481453,0.68509984,-0.50252503,-0.49939996,0.33299887,-0.44183835,0.13968489,-0.24113198,-0.068216585,-0.06615146,0.20390078,0.35526294,0.071234226,-0.22886199,-0.07334636,-0.09618257,-0.18999,-0.075902924,0.6247937,0.115015745,-0.09144324,-0.23703212,-0.15927823,-0.19490682,0.09037898,0.49264982,0.11216399,0.21318388,0.066843756,-0.085912585,0.09953525,-0.21675006,-0.21970172,0.082386434,-0.121969596,-0.43743035,0.0925526,-0.20602557,-0.2695108,-0.1168134,0.07572541,-0.37338838,0.093817316,-0.21902618,0.0991151,-0.14496644,-0.057531334,0.08997404,0.1068299,0.38267386,-0.41868314,-0.1365054,0.13317952,0.27409708,0.19139466,-0.3067044,0.059007302,0.007608764,-0.03217161,0.17855777,-0.120161355,-0.25180572,0.56640744,0.002325438,-0.13233894,0.025260411,-0.12240397,0.029715072,-0.70430386,-0.19032156,0.6017524,0.45137638,0.25257826,0.5582747,-0.3916489,-0.25111094,-0.2578495,-0.29643434,0.020715993,-0.51163566,0.044429008,0.10188603,-0.17342998,-0.6466783,0.1116471,0.34185782,0.36531934,-0.5353908,0.07443175,0.5855171,0.36995012,-0.4020571,-0.04194569,0.22006693,-0.14796306,-0.075259596,-0.49922973,-0.16657653,0.15300542,-0.19802299,-0.13824038,-0.2621285,0.14157805,-0.21455644,0.2614041,0.29569033,-0.07000162,-0.033864915,-0.4166064,-0.20740844,0.16704395,0.12581885,0.13951457,0.11931724,0.13626507,0.08886507,-0.124723114,-0.16583155,-0.4911076,0.29733,-0.22930798,0.14339893,0.09611099,0.3307543,-0.16955876,0.4952423,0.036574524,-0.15752962,-0.09176471,0.10178575,0.41078994,-0.107261196,0.17294535,0.1438619,0.3086453,-0.01908815,0.32937118,-0.09866966,0.09233934,0.04012285,0.42900428,0.09924387,0.16880916,-0.14251883,0.17830716,0.37559617,0.09333423,0.40229174,0.1995976,0.5884927,-0.2566307,0.5198533,-0.09448313,0.34786117,-0.17576952,-0.06409552,-0.16162997,-0.14436358,-0.47417632,-0.27828214,0.15772556,0.5681423,0.21440533,-0.18313491,-0.18714306,-0.042639755,-0.52328473,0.21045324,-0.5840706,-0.45048717,0.18066436,0.09142532,-0.7970287,0.48833984,0.2794035,0.17711972,0.108457804,-0.1894833,-0.05274927,0.23361753,-0.30999798,-0.28519973,-0.033683248,-0.25676432,-0.20890804,-0.04791078,-0.0231813,0.37604073,-0.27698267,-0.25635803,0.80338645,0.16347052,0.34063178,-0.08115624,-0.26287714,0.19001886,0.17547202,0.03820233,0.34399092,0.006979823,0.031714123,0.15209474,0.15746686,0.50746393,-0.090674,0.2731566,0.33738872,0.5892425,0.4226811,-0.09912655,-0.2782965,-0.23182717,0.38419613,0.083939806,0.4662072,-0.07589144,0.14661358,0.11085898,-0.01912288,0.20776682,-0.46564263,0.0113066975,0.017009057,-0.4242528,0.27288842,-0.39382336,0.12972026,0.33341235,-0.5187329,-0.19500785,0.3377903,-0.10891334,-0.22115578
T,-0.29781678,0.04891239,-0.16677926,-0.25700566,-0.08884016,-0.29548794,-0.25841194,-0.1827587,0.10843584,-0.06751178,0.09218777,0.053573884,-0.123473704,0.28891388,0.18854518,-0.09914268,-0.045572035,-0.2853615,0.027692318,0.22668427,0.11720291,0.061959952,0.3577501,0.19307883,0.41915786,-0.03260695,0.12223844,-0.20431451,-0.037656218,-0.09984095,-0.20123719,-0.04783009,-0.061116267,0.06661478,0.0014913157,0.05455768,0.21469636,-0.3182273,0.2887602,0.015546627,0.20313565,-0.032218684,-0.35494143,0.043943495,-0.03632374,-0.022651166,-0.862242,0.09190096,0.07510347,-0.13008171,-0.3519628,-0.20775542,0.29532048,0.11405491,-0.17063624,-0.30864477,-0.15456465,0.4273675,0.055290267,0.012949202,0.13678338,-0.15083066,-5.1907606,-0.19984804,0.19250676,0.28306332,0.24885844,0.03455998,-0.10196437,0.24024615,0.20143071,-0.23665756,-0.11735757,0.07816537,-0.36648205,0.23454684,-0.114883885,0.26350698,-0.15275204,-0.19835266,0.20578006,0.03704686,-0.18011561,-0.05730267,-0.25566244,-0.058404572,0.1271596,-0.07995498,-0.09429814,0.033413406,-0.14652391,0.11823304,0.05519716,0.10485545,0.008187667,0.23141964,0.112654254,0.73878926,-0.09868457,-0.2048055,0.011437986,0.18371493,-0.003257677,-0.15526748,-0.026808113,0.092294976,-0.06256572,-0.17317657,-0.4872264,-0.3713999,-0.36714593,0.38130236,0.30362493,0.11150998,-0.0059761163,0.1720113,0.21181208,-0.060599096,-0.3080966,0.09432942,0.08873949,0.24981716,0.16067848,0.20535138,0.31487447,0.014460295,0.024517782,-0.27072963,0.010027951,0.12577751,0.12049949,-0.12596546,-0.4037081,-0.12864342,-0.109283835,0.123479344,0.0027175844,-0.193208,0.18338649,-0.20039079,0.13211232,0.00092995167,-0.15011865,0.17262056,0.13824059,-0.027383484,0.3652262,-0.021666773,-0.14410444,0.29766732,-0.12258418,-0.34186935,-0.18663913,0.16713312,-0.29102817,-0.21022306,0.17385574,0.01685138,0.012916949,0.4920658,0.33158463,-0.16429628,0.4411342,0.08953433,-0.016536064,-0.37380046,-0.30155727,0.00072506734,0.06196869,0.11430855,-0.54664844,0.3933759,-0.21358478,-0.015986562,-0.24669817,0.21869889,0.3873026,0.030480325,-0.45240334,0.023388427,0.3713703,-0.0017708577,0.39434204,0.12879454,-0.1779451,-0.047279302,-0.28513074,0.07377079,0.17732991,-0.60540134,0.32940716,0.19055647,0.466081,-0.0354963,0.17829639,-0.050664745,-0.030276442,-0.08526935,0.20754105,0.14516886,-0.13236445,0.24091393,0.16660315,0.017340919,0.07101066,-0.008458406,-0.29162252,-0.5480295,-0.097978696,0.14653485,-0.08362378,-0.48942807,-0.027221177,0.26068914,0.44989085,0.15933007,-0.31166816,-0.025120057,0.23953795,0.1904046,-0.448866,-0.0024362393,-0.115696386,0.36669838,-0.3315884,-0.090088084,-0.07906162,0.10469706,-0.054381017,0.08243808,0.009790417,0.14883941,0.300486,0.05300354,0.088485956,-0.14685492,-0.41493562,0.018218428,0.02202116,0.16556627,0.18288878,-0.014829785,-0.108859114,-0.13346966,-0.20272236,-0.08609751,0.36107823,-0.039783645,0.007794833,-0.0696976,-0.13757648,0.03381711,-0.12937507,-0.07642433,0.048877988,0.18866944,-0.1438963,-0.05189066,-0.110127814,-0.14231256,0.06795851,0.6533209,-0.01355046,-0.0155420685,-0.07026191,0.10272677,-0.02434208,-0.27716845,0.16662502,0.037423205,-0.056155514,-0.122195035,-0.11931774,-0.011210199,-0.023186222,0.24650398,0.092366144,0.0254602,0.10824489,-0.13726163,-0.18516095,-0.19585007,0.21344814,0.08816638,0.15688318,0.097681865,0.088301435,-0.33293614,-0.40588695,-0.07881513,0.04543533,-0.1332647,0.15623401,0.15709749,-0.14938797,-0.02425568,0.1427078,0.20173068,-0.09650248,0.18927741,-0.22694929,0.004381165,0.062219255,0.5279575,0.071951315,-0.23682263,0.0477319,0.09664202,0.112637445,-0.003471125,0.48768848,0.49872208,0.21916103,0.20438325,0.04312902,-0.23021503,0.041463986,0.4356453,0.04577429,-0.1427627
E,0.20985216,-0.53147674,0.20995913,-0.09380931,0.11206257,0.13120954,0.061088815,-0.013131645,-0.048767634,-0.029689133,-0.2522624,0.17654634,-0.11953032,0.21244177,-0.17879629,-0.13686082,0.036614574,-0.20297234,0.37953717,-0.13721369,0.2921976,-0.012152223,0.05984609,0.023109486,-0.06706436,0.040063255,-0.060990788,0.0689618,-0.25827372,-0.02666222,-0.08791188,0.0416359,0.16724302,0.1815299,-0.3179967,-0.19296992,0.15394953,-0.1446491,0.5096634,-0.17567122,0.053428296,0.38127148,-0.44518277,-0.11865503,-0.03935659,0.37061128,-0.94908327,-0.13445124,-0.158049,-0.32678705,-0.026371863,0.083014086,-0.051966365,0.053359237,0.014059119,-0.18679419,0.11046057,-0.101301454,0.35824826,-0.1342662,-0.17740639,0.2209514,-5.31703,0.15204763,-0.0021130778,0.23695277,-0.17622352,-0.04649848,0.057731286,-0.036145456,-0.09565552,-0.14301789,-0.45772067,0.048398435,-0.20435542,0.19982949,-0.1396194,0.11155814,-0.19739483,0.2515277,0.26949254,-0.23742126,0.08435601,0.26904508,-0.1483609,-0.27762938,-0.25014663,-0.29502156,0.10097149,0.15589935,-0.030163825,-0.24406986,0.06494691,0.34800968,0.060689703,0.05764518,-0.15176728,-0.0060573183,0.29295492,-0.11624953,0.0043396233,-0.06779515,-0.013923861,0.08086994,0.13976704,0.14966996,0.15318184,0.002091162,-0.22467987,-0.020755779,0.08056974,0.04392851,0.14340213,0.017369412,0.07011399,-0.1706369,0.15386455,0.117102176,-0.30920273,0.19502997,0.21202466,0.2643542,0.23952213,0.030431919,0.13392143,0.10490267,-0.17890152,-0.17238286,0.20075247,-0.0153751895,-0.09645912,-0.109519646,-0.4069377,-0.15452349,-0.18058516,0.05581877,-0.2589723,-0.03650753,0.116926774,-0.30708516,-0.28667885,-0.0337231,-0.13329892,0.25512296,-0.04546796,-0.16140364,0.2883938,0.19283167,-0.110847674,0.050715685,0.26256105,-0.2397228,0.054806992,-0.32886314,-0.08528192,-0.2193799,0.15190527,0.18831107,0.17293224,0.33966693,0.07649105,0.16275099,0.3442282,0.04194437,0.27550605,0.19917887,-0.13246578,0.022936702,-0.089948095,-0.011499684,-0.04129334,0.09148662,-0.1680254,-0.07322691,0.051383063,0.4175676,0.014075343,0.03768982,-0.30684152,0.044089124,0.18370421,-0.25444868,0.03257889,0.22468856,0.16836628,-0.21057427,-0.22766386,0.3333966,0.10514426,-0.15884939,0.077002205,0.39378765,0.44809628,-0.005818879,0.035910107,0.093192935,-0.038149893,-0.05742649,0.34946564,0.23281753,-0.11921169,-0.12141841,0.13156953,-0.032625817,0.20485151,0.005454123,0.09459217,-0.4102694,0.14557476,0.2549724,0.04336979,-0.24564275,-0.074612886,-0.006956121,0.08278757,0.21653041,-0.4284336,-0.05897218,0.28453273,0.19092795,-0.47307825,0.22576511,-0.04335586,0.03218005,0.070755646,-0.032201074,-0.26878786,-0.18095008,0.30569577,0.23956826,0.22367775,-0.024774455,0.11770341,-0.07029042,0.018253155,-0.22147712,0.10778266,0.1230102,0.03145707,-0.034501202,-0.11812795,0.027614288,-0.16418685,0.16775808,0.002950102,0.096604705,0.20835634,0.17910363,0.18868077,0.101489864,-0.07425915,0.12360697,-0.10516262,-0.047009964,0.051453162,-0.06357146,0.14921093,-0.18197937,-0.41096497,0.048624367,-0.18910831,0.22972757,-0.13509497,0.1850245,0.02333045,0.078588575,-0.014717158,-0.1804479,0.08163102,-0.13541973,-0.049270373,0.29684365,0.12143345,-0.059659727,-0.056650743,-0.09481071,0.1226929,0.18189326,-0.16494162,-0.13587198,0.09895101,0.024544105,0.19522712,-0.15128297,0.36049035,0.2865983,0.1099537,-0.0085093975,-0.48771918,-0.2711955,-0.09239794,-0.22427493,0.14069414,0.02102304,0.07848081,0.08603847,0.018223353,-0.15453957,-0.4976635,0.08823842,-0.24596876,-0.1460979,0.039094165,0.09420841,0.097241744,-0.020639215,0.14309959,-0.02649311,0.15080482,-0.46068022,0.31543636,0.6185764,-0.11976977,0.23289426,0.19758143,-0.20823343,-0.10786599,0.017906535,0.10167374,-0.020639412
I,0.0037341937,-0.50814056,0.469251,0.14734739,0.1573973,-0.015410297,-0.13751009,0.16792582,0.24556673,-0.03769812,-0.35224894,0.22058418,-0.25154355,0.5333035,0.1448533,-0.047754407,-0.28286964,0.35904735,0.26351458,-0.014154546,0.1906695,0.038196,0.09954911,0.31878385,0.09380153,0.4225172,0.017487086,-0.043485012,0.20443064,0.064046085,-0.09124311,0.06446789,0.0382791,-0.16229084,-0.17610449,-0.37105945,0.015446559,0.08197531,0.48137897,-0.13828462,0.19353674,0.09696068,-0.11977744,-0.21224824,0.19663945,0.07493381,-1.025516,0.28339675,0.038042642,-0.29731077,-0.007276072,-0.012501745,0.514807,-0.29963133,-0.14730716,-0.18775566,0.15737142,0.17168084,0.11507612,0.30157882,-0.26860937,0.057112202,-5.280117,0.06112273,0.08112262,-0.01984665,0.23378962,0.07021135,0.15823114,0.215648,0.052873276,-0.24960688,0.29294512,0.20820467,-0.24549013,0.17679659,0.25741696,0.16489314,-0.018066859,-0.11109073,0.0728925,0.14099833,-0.35670793,-0.10711597,0.07283558,-0.12075568,0.02489835,-0.45989007,0.48421854,-0.05672179,-0.14842919,-0.0448415,0.18686998,-0.040827528,0.18577635,0.1748462,-0.28892908,0.37944275,-0.057896797,-0.3299386,-0.09110879,-0.1334694,0.11993869,0.08689204,-0.136229,0.06343335,0.34216455,0.0026689172,-0.030111745,-0.06831854,0.016572025,0.09788951,-0.10481624,-0.017779391,0.09073045,-0.04079366,-0.14114097,0.0026630796,-0.1177298,-0.17266954,0.26904395,-0.32646072,0.31917837,-0.16061012,0.20536289,-0.15149787,0.25815624,-0.0037174597,-0.02216649,-0.22656657,-0.091251515,0.06279121,0.0031676255,0.07689342,0.25627518,0.21536192,-0.17695257,-0.062055975,-0.08314512,-0.31025222,0.08919417,0.05569172,-0.1850675,-0.1733811,0.06986579,-0.34192616,-0.15529554,0.12348027,-0.21885839,0.39033368,0.106565,0.06508452,-0.40255985,-0.23074657,-0.0020786729,-0.219748,0.35233024,0.08946298,-0.031030808,0.06175077,-0.0061795935,-0.108398095,0.044253446,0.09928863,-0.011454312,0.024685338,0.039727665,-0.32571614,-0.10694957,0.022605203,0.068466395,-0.046494618,-0.08951694,0.09932079,0.03591825,-0.17537548,0.239062,-0.14011009,-0.45935553,0.07400675,-0.28265843,-0.25386125,0.1093134,-0.058918353,0.15185861,-0.06926173,-0.16822933,0.24172796,-0.09708932,-0.04338087,0.1855692,-0.39963144,0.32857344,-0.20420927,0.24725756,0.1840697,0.11195263,0.26738787,0.36795992,0.3347368,-0.00829478,0.24016845,0.025679925,-0.21160945,-0.23816282,-0.02346401,-0.030085532,-0.14991234,0.20478867,0.15964328,-0.15154356,-0.097649395,0.18294181,0.09906324,-0.1681854,0.055274874,-0.33518815,-0.081136815,-0.08864454,-0.016764253,-0.42928672,0.25255045,0.027029786,0.141066,-0.13018288,0.13356885,-0.2468998,0.14594437,-0.008889591,0.11743651,-0.10819167,0.20856796,0.3117989,-0.43271464,0.14979923,0.10734912,0.23963231,0.09301497,-0.06802065,-0.19044408,0.3216966,-0.1164145,0.047830574,-0.27299923,-0.02937904,0.06544978,0.21328631,-0.11589037,-0.0059066154,-0.15599796,0.021241508,-0.1454039,-0.02143474,0.12372668,-0.104763485,0.43444985,0.090329014,-0.05422949,-0.16515139,-0.1976073,0.11026922,-0.18241163,-0.18215328,0.0036911834,-0.0053977333,0.14077024,0.097461045,-0.27861944,-0.010399677,-0.38496417,0.07556784,0.34003198,-0.19481602,-0.09457533,-0.06988345,0.10385677,-0.0043406244,0.11230233,-0.04331159,0.0115176495,-0.031003825,-0.23777246,0.38339853,0.049277976,0.085904956,0.19430204,0.23524335,0.08550526,-0.09661245,-0.17329215,0.19119634,0.12259951,0.04337646,0.11382813,-0.056858152,-0.19896619,0.095522724,-0.11293697,0.04086836,0.22431916,-0.102213025,0.10913465,-0.17203021,0.5272554,-0.12819606,-0.2891942,0.050795473,-0.049131706,0.13787347,-0.35059607,0.07303459,0.04092089,-0.14089414,0.08296138,0.32543683,-0.09163906,-0.062017623,-0.21320122,-0.025484946,0.04801815
T,-0.20988488,0.2368407,-0.091557585,0.14244173,-0.02986148,-0.08610437,-0.20876917,-0.004744366,-0.07699677,-0.16768824,0.2903715,0.29058146,0.048765477,0.07288194,0.24794461,0.076298214,0.060977533,0.007959134,0.086774856,0.51183283,0.22832106,0.05593635,0.25509545,0.11067853,0.59920245,-0.09409535,-0.21567148,-0.29203004,0.042798445,-0.10191037,-0.01961628,-0.10207075,-0.43052578,0.16431037,0.12268366,0.04112853,-0.013305848,-0.037531048,0.25687018,0.07183528,-0.049499705,-0.00054522976,-0.047361165,0.19845617,0.12841366,-0.024455816,-0.873223,0.09746036,-0.10464126,-0.09213218,-0.17292532,0.17290112,0.3232648,0.23035364,-0.003920503,-0.13507576,-0.3272265,0.15558317,-0.12629,0.10119738,0.011629127,-0.021949127,-5.1880293,-0.24013974,0.30917355,0.008435877,0.07484844,0.29138985,-0.1832722,-0.026428241,-0.09497911,-0.17170605,-0.06487318,0.09270145,-0.46629888,0.05694525,-0.042167936,0.016855255,-0.124834895,-0.41580948,0.0906588,-0.17564917,-0.40612042,-0.25414744,0.1390405,-0.33333072,0.34413925,-0.29443923,0.24240887,-0.1409671,-0.008029534,0.07685061,-0.01906022,0.15742978,0.079238996,0.07242002,0.11456825,0.27388316,-0.14093633,-0.2557468,-0.049909115,-0.05422179,-0.19616032,0.013031153,0.17027275,-0.07224904,0.28390494,-0.36679533,-0.19155294,-0.3438553,-0.35046807,0.15710925,0.43084106,0.05594988,0.10520944,0.45221132,0.10781483,0.19387677,-0.33767307,-0.14383875,0.22578162,0.17431593,0.20368654,0.22012916,-0.030744288,-0.055698533,0.113309026,-0.18178526,-0.20648223,-0.11958861,-0.11102582,-0.03249862,-0.10430512,0.0085195005,0.075328454,0.13319579,-0.21438915,-0.099935845,-0.30300024,-0.0630095,0.26619583,-0.016512841,-0.029429547,0.14732495,-0.055725694,0.060445532,0.30431178,-0.22462761,-0.0021645436,0.4155648,-0.1480411,-0.28243598,-0.39579916,0.08351059,-0.13984382,-0.33465448,0.041238844,0.10615339,-0.09714045,0.39163172,0.12573805,-0.2585644,0.45644993,0.28207648,-0.12076801,-0.41938856,0.1688772,0.05341342,0.085626855,-0.0055218134,-0.6075624,0.4073232,-0.24370947,0.01275114,-0.17996162,-0.111542135,0.352442,-0.1846551,-0.61039287,-0.12306583,0.23437372,-0.10769528,0.13366075,0.08811042,0.052354034,-0.20581178,-0.3047467,0.15936798,-0.08111235,-0.51379657,0.15643239,-0.06688363,0.42319778,0.17257449,0.021176837,-0.14806724,-0.13327304,-0.019275885,0.24511182,0.15507792,-0.1442686,0.10162021,0.233595,0.16907743,-0.2613759,0.17316718,-0.120037474,-0.34747633,-0.12964585,-0.019615985,-0.008165173,-0.375863,0.06960677,0.111420564,0.18642122,0.25015566,-0.17362343,0.06473878,0.13589478,-0.18512014,-0.68620914,0.110608,-0.0837781,0.251326,-0.31937802,0.18302613,-0.21145055,0.100151375,-0.33779877,0.2911356,0.25981513,0.0030588284,0.20626046,0.18636586,0.181182,-0.06589611,0.12897304,0.022916332,-0.22872825,0.052513115,0.34236518,-0.11443694,0.0008519683,-0.09512591,0.19564101,0.2022506,0.20129474,-0.053974543,-0.02323293,-0.11245105,0.12886365,0.1885082,-0.13242558,0.15933932,-0.05552854,0.29269332,-0.06976141,0.20438236,0.19337948,-0.082643054,0.11228371,0.37861794,-0.02458512,-0.008824007,-0.07108931,0.118440226,-0.1271959,-0.19437386,0.026645131,-0.31851825,0.13809599,-0.63288116,0.32053107,-0.07574686,-0.060587406,0.31769544,0.012527306,0.28332892,-0.09016921,-0.28841633,-0.017088495,-0.2252664,0.08192906,0.088339366,0.5689812,0.29723692,0.05767551,-0.13453972,-0.4350644,0.07369612,-0.13295445,0.035826482,0.022472566,0.13845205,-0.21310778,0.11359417,0.0074476283,0.27756912,-0.02967324,0.04937327,-0.120467186,0.23706415,-0.010664847,0.097626895,-0.115281865,-0.06904258,0.3096421,0.13796437,0.16947114,-0.3109052,0.117185764,0.60672575,0.4275223,0.21867904,0.072672755,0.04005295,-0.0028035827,0.34553558,-0.10210069,-0.019249054
A,0.14282393,-0.02544289,-0.07730486,-0.16932428,0.19482347,0.43373293,0.118244305,-0.000943359,0.07142389,-0.27357072,-0.25458044,-0.27258715,-0.23658556,0.14456642,-0.107819125,-0.11486079,-0.40699223,0.11571134,0.0965749,0.3181906,-0.24152227,-0.0125274025,0.0869904,-0.09704096,0.15167017,-0.016668294,0.17703676,-0.29981548,-0.013346592,0.25657877,-0.20121337,-0.32082748,0.2640877,0.39724046,0.092097625,-0.4408703,-0.10657471,-0.21144149,0.3709579,0.24520174,0.16089326,0.6542222,0.27142876,-0.2919386,0.12744248,0.36434767,-0.8391464,0.24258128,0.22127336,-0.1990136,-0.35920313,-0.30631354,0.36740983,-0.30214137,-0.2028099,-0.026449062,0.21024123,-0.008554392,0.3723831,0.009662822,0.15228672,0.23049939,-5.020636,0.19558482,0.051299028,-0.032302342,0.31216174,-0.13757262,0.18635078,0.025882721,-0.33519176,-0.20180894,0.05796524,0.2821924,-0.5523126,0.16341531,0.27146962,0.47992945,0.05508508,0.3430981,0.28234658,-0.14461833,-0.103516355,0.06473765,-0.09755249,-0.48976508,0.21008924,0.023688417,0.17316228,0.3870229,-0.32181233,0.16755643,0.16974351,-0.04520916,0.3044372,0.064373046,0.01834628,0.22758001,-0.012859359,-0.03534001,-0.22510901,-0.037827305,-0.12587902,0.12149206,-0.26917344,0.18128087,-0.0031076744,0.35827467,-0.20511454,-0.41020954,-0.22296228,0.2194133,0.08539599,-0.028299987,0.13154677,-0.17057481,-0.11781341,0.30165413,-0.11523506,-0.017051138,0.015788678,0.20131387,0.20672643,0.049050607,0.21112208,-0.2551972,-0.15290946,-0.50556326,-0.11841406,0.07854377,0.0032923296,0.13063207,-0.2557742,-0.09557915,0.16334683,-0.13190655,-0.06604709,-0.14268789,-0.29598057,-0.049328666,0.09336104,0.06655431,-0.03539747,0.115258224,0.057993516,-0.34296092,0.16696669,-0.12622322,-0.028842539,0.1600049,0.26131436,-0.5529716,-0.18690306,-0.0865352,-0.31065577,0.032310523,0.34693873,0.11878879,-0.17091712,0.4384733,-0.08572091,0.011608476,0.17431009,0.06320959,0.25406277,-0.3721518,-0.1400334,-0.26585358,-0.051940583,-0.057245404,0.20495346,0.14972582,0.1778327,0.01509814,0.34757796,0.04290348,0.3197637,0.019517496,-0.37351957,0.20864205,0.061464377,-0.23652878,-0.009890393,0.061846353,0.11226298,-0.28277785,-0.06702665,-0.016078658,0.26405853,-0.057478763,0.5628466,-0.001115486,0.46153194,0.0330623,-0.2748041,0.6188822,-0.08519315,-0.08042299,0.30374727,0.09142783,-0.16963744,0.21751449,0.40418676,-0.026768457,0.12577502,-0.37446436,-0.38986248,-0.09049242,0.071662225,0.11155307,0.10811892,-0.42869818,-0.07921927,0.046637535,0.1151104,0.13285702,0.04893787,-0.2873479,-0.037715025,0.29554272,-0.25590703,0.059097916,0.26656362,0.22248216,-0.1861991,-0.2938255,-0.14915872,-0.07606122,0.021526307,-0.0070819966,-0.0455938,0.25318253,0.3278185,-0.4333671,0.31490815,-0.16379261,0.16557425,0.066758126,-0.39117604,-0.03871169,0.32323453,-0.11617504,0.058026932,0.42579386,0.1593101,0.027719013,0.29686216,0.14675224,-0.1601784,-0.07114263,0.10424107,0.18048805,-0.4188517,0.32019642,-0.35817847,-0.12337211,0.011731688,0.37945935,0.07300098,-0.37102497,-0.11531877,0.2606029,-0.19514865,0.11319487,0.09176433,0.011181578,0.06617993,-0.17836769,0.17701463,-0.3689843,0.083353385,-0.3178315,-0.24179721,0.22074297,0.077788346,0.26604733,0.066083476,-0.21532162,-0.56855834,0.079783276,-0.033789076,-0.11869615,0.24990037,-0.11684227,0.051936075,0.5744707,-0.41139793,-0.25260323,-0.17001228,-0.26242507,-0.2234014,-0.117501915,0.285756,-0.35287616,0.28592318,-0.18204574,0.11164457,0.3055467,-0.5736202,-0.12687185,-0.021136858,-0.40286398,0.32249463,0.27639523,-0.11656891,-0.009678777,0.20662972,-0.5470958,0.14987254,-0.19425617,-0.09428126,0.088247105,0.26702547,-0.018261515,0.19169366,-0.12602714,-0.17064497,0.43226314,0.06858778,-0.19734116
A,0.10553239,-0.058797747,-0.049035378,-0.18120874,0.22960187,0.17635012,-0.0035059415,0.16829157,0.076249614,0.14912212,-0.19511513,-0.35710403,-0.07471492,0.14785747,-0.19075038,-0.30496374,-0.07054801,0.0011810492,0.008243173,0.1875562,-0.114034496,0.117369756,-0.042725503,-0.008167859,0.045057904,0.19415668,0.3354069,-0.059992872,0.076909065,0.08917815,-0.18473907,-0.27080008,0.54028517,0.17380804,0.015544035,-0.35415196,0.004523881,0.06002825,0.48904198,0.07587466,0.40876848,0.6506065,0.120378,-0.49456066,0.22482985,0.17717186,-0.8838342,0.0040254956,0.0754893,-0.18669116,-0.052024335,-0.14334817,0.25349215,-0.12093885,-0.13842517,0.0956831,0.31352445,-0.05741589,0.6822712,0.04713562,0.06893552,0.028931655,-5.0620246,0.026781723,0.13594443,-0.12286353,0.18432154,-0.025509492,0.36512446,0.082603395,-0.008715667,0.00677591,0.14455342,0.3560504,-0.31006992,0.27759224,0.1803791,0.5752839,-0.25458843,0.03437905,0.3634105,-0.43557695,-0.19403759,-0.10496983,-0.20922393,-0.21231194,0.065249324,0.1816428,-0.021857793,0.51306343,-0.32241884,0.103586316,0.28078568,-0.20357275,0.17701852,0.025991157,-0.08666848,0.21634927,-0.062119927,0.16792236,-0.011852326,-0.1494886,0.24902481,0.1516421,-0.04489699,0.16130482,-0.08263809,0.18627262,-0.1958996,-0.5173506,0.13501723,0.15587418,0.09924353,-0.1985554,0.15790343,-0.24857816,-0.15139827,0.09903318,-0.057117887,-0.039971083,0.020007234,0.2784872,0.17509192,-0.06454622,0.26953003,-0.18081228,-0.1281049,-0.10773069,0.049507514,0.18260162,-0.06816183,-0.00078719854,-0.31895688,0.01503709,0.26752168,0.059444793,-0.004550211,-0.27693948,0.034668043,-0.3180592,-0.018154293,-0.20232084,0.0073160976,0.37070447,-0.009889744,-0.12875499,0.3081641,0.012961231,-0.18000332,0.07970441,0.3006645,-0.32711953,-0.19870852,-0.010556057,-0.40753737,-0.27817377,0.39373675,0.070668526,-0.1476843,0.42959172,0.11106267,-0.1708578,0.026905293,0.09941056,0.22622001,-0.18557721,-0.13929307,-0.15371627,-0.27659166,-0.04197413,0.41267893,0.2089475,-0.097218096,0.27201506,0.28717515,0.02634285,0.3865213,-0.04710515,-0.2282987,0.13568476,0.29056844,-0.35410124,0.028585754,-0.019845072,0.10782633,-0.14663735,-0.377084,0.07870441,0.06668693,-0.22464049,0.25235298,0.042279925,0.43331277,-0.17186925,-0.005669579,0.37270415,-0.2131259,0.053356875,0.15600196,0.30990225,-0.17879067,0.17331946,0.33589795,0.30436644,0.18400793,-0.14874393,-0.13394722,-0.30977288,-0.03155145,-0.024738386,0.108750895,-0.40319178,-0.027692974,0.04507907,0.20281863,0.00029067695,-0.07117228,-0.33584237,-0.2685411,0.18983802,-0.3295509,-0.09181747,0.22642833,0.16497491,-0.23521358,-0.22545299,-0.092433825,-0.15657318,0.21446589,0.023730047,0.18529648,0.23752248,0.53929347,-0.34540993,0.2807925,-0.23657891,-0.06511215,-0.02587144,-0.06636907,-0.26667768,0.32941362,-0.18108442,0.12953609,0.3243498,0.24771088,-0.16763222,0.32312492,0.15236196,-0.32621282,-0.020884015,0.02983179,-0.03372827,-0.38769388,0.58132315,0.018900324,-0.15840039,-0.12597686,0.2406281,-0.061853312,-0.3153159,-0.3266453,-0.13818115,-0.026933067,0.017732125,0.113686055,0.15782149,0.3221002,-0.29544687,-0.06446667,-0.38356626,0.20303635,0.17534932,-0.21698421,0.393999,0.16261594,0.057502612,0.043723606,0.22324641,-0.49320698,-0.1675552,-0.21522957,-0.021533836,0.10490595,-0.058189366,0.19477159,0.38139623,-0.19579904,-0.25345805,-0.31675154,-0.100189544,-0.10766448,0.013501503,0.060686868,-0.38464108,0.25703165,-0.0990847,0.060651705,0.13375598,-0.13932249,-0.05314076,-0.23558234,-0.43840075,0.37493315,0.10619449,-0.40839067,-0.25870836,0.22671244,-0.7180932,0.24561302,-0.08476038,-0.16193873,0.20054206,0.054237224,0.004608318,0.013997119,-0.15345573,-0.40086398,-0.13839902,0.009613007,-0.43415594
M,0.15636942,0.22295386,0.33282444,0.4431741,0.30132273,0.14274794,-0.26187795,-0.11436219,-0.14239298,0.3880725,-0.14464861,0.15420596,-0.2677726,0.21368216,0.0039022025,-0.15738098,-0.1520876,0.23662193,-0.0016629454,0.37837216,-0.0045375354,0.05723048,-0.36938733,-0.1266433,-0.3263823,-0.2331099,-0.122022495,-0.53322816,-0.01450813,0.012933226,-0.119402975,-0.33011076,0.20043352,-0.18383153,0.3338984,-0.7054202,-0.3016073,-0.03445202,0.49574232,0.066184975,-0.089167796,0.1826188,-0.03194213,0.04556413,0.00070521235,0.18728921,-0.6182425,-0.16811925,-0.10817825,-0.128903,-0.22030771,-0.118418425,0.5007476,0.19390824,-0.20026676,0.25454733,-0.04864403,-0.004607957,0.36261615,-0.026662325,-0.28336027,0.11410385,-4.7959137,-0.28994954,0.28039545,-0.51360077,0.47982544,0.10628533,0.24388772,0.29336262,0.010451842,0.21948269,0.060272366,0.20962894,-0.41895765,0.1441102,-0.02997892,0.32117608,-0.26291665,-0.2174865,0.2884954,0.015915794,-0.10527144,-0.9202061,0.100131825,-0.36761755,-0.10063532,0.08724867,0.19331576,-0.25652528,-0.47295433,0.070404075,0.13905492,-0.17607269,-0.33698896,0.16162843,-0.06863453,0.107174784,0.29778683,-0.0296731,-0.14332117,-0.2559311,0.25290495,0.13118854,0.38662717,0.22128156,0.32521483,0.09173764,-0.2110395,-0.052982714,0.38391432,0.22281998,0.29862493,-0.19022307,0.05203662,-0.039690606,0.06561947,0.102187485,-0.27240705,-0.12620151,0.41714057,-0.021510959,0.36065638,-0.30582735,-0.008481855,-0.009212807,0.29223987,0.04433777,-0.175445,0.31858587,-0.47117627,0.39293748,-0.2566267,-0.15529375,-0.06841111,-0.021024905,0.3297415,-0.0048648566,-0.033221096,-0.39570168,0.29410335,-0.26422444,0.0003920421,0.2251549,0.35704643,-0.2095541,0.08287473,-0.16746446,-0.50872386,-0.328775,0.44268245,0.031554922,-0.68007857,0.17026836,-0.38547495,-0.39863613,0.32839078,0.19267657,-0.04778354,0.10193397,0.034794923,0.07089877,-0.04522109,0.42341328,0.29100809,0.2447646,0.34123743,0.1387988,-0.14840227,0.017673237,0.16504866,0.004142193,-0.27548873,0.002774863,-0.099642746,0.1073192,0.46299496,0.04125963,-0.47289163,-0.13696994,0.45927078,-0.30551046,-0.22019705,-0.17340694,-0.20118189,-0.06125257,-0.27880913,0.067104205,-0.18999867,-0.17398249,0.29377282,-0.033130124,0.32865822,0.0021375082,0.16680953,0.014944971,-0.41403997,0.24235232,0.085062444,0.5271939,-0.1352216,-0.41205674,-0.12806052,0.055141132,0.23687106,-0.025275629,-0.17449285,-0.24879977,0.19224343,0.04147753,0.109062284,-0.17709465,0.04801035,-0.37510762,0.21181288,0.24439251,0.040307023,-0.2531227,0.19704467,0.11710268,-0.1683321,0.30397338,0.31756586,0.061609168,-0.4745391,0.23637593,-0.20890562,-0.3295378,-0.18653469,0.12948045,0.29461914,0.06514883,0.46881545,-0.12914075,0.25610375,-0.018566698,0.31449878,0.028128728,0.27728343,-0.1969358,0.44015378,0.043401085,0.061214224,-0.08534284,0.2860187,-0.09370091,0.080326416,-0.16598693,0.14805433,0.06694731,-0.32292917,0.105477065,-0.1527423,0.3233956,-0.21591865,-0.0672237,-0.08437473,-0.15074122,-0.23480204,-0.38110927,-0.099199176,-0.38671908,-0.33657932,0.65076286,-0.15861742,0.547837,-0.05644294,-0.402676,-0.13365713,-0.3522037,0.47545266,0.16977856,0.15451457,0.046006054,0.4783062,-0.31156695,-0.21798638,-0.0538388,0.1438946,-0.26656717,-0.2074497,-0.039872862,0.1078895,-0.20410937,0.7006958,0.40785488,-0.067654155,-0.14639752,0.11025261,0.18731551,0.5380747,0.10125369,-0.13674091,0.41153523,-0.22169559,-0.091332644,-0.12283243,-0.09838725,0.14974412,0.2716206,-0.104011476,-0.1299273,-0.17324628,0.3639964,-0.40604818,-0.14286153,0.6591034,-0.30978647,0.15433033,-0.696453,-0.33755273,0.25136498,-0.34970063,0.35730803,0.26753905,-0.03735406,0.14507383,-0.36556995,-0.039132882,-0.05635914
V,-0.09004597,-0.09786535,0.8485735,0.11251861,-0.20300221,0.05802402,0.17826478,-0.2166271,-0.06940463,-0.11140384,-0.3800905,0.26078513,-0.27778253,0.066912465,0.110177435,-0.036871254,-0.1625942,0.16995907,0.16350573,0.09846863,-0.052149978,-0.12126688,-0.15648441,0.009476198,-0.014030892,-0.074172094,-0.043013327,-0.03858729,-0.2270112,0.12798688,-0.026344843,-0.043757185,-0.1344372,-0.4920911,0.171148,-0.5741749,-0.07645929,0.020631857,0.2993184,0.41343132,-0.08725854,0.43207952,-0.038193673,0.010322228,0.20702466,0.199078,-0.59975857,-0.010689113,-0.33142704,-0.16772318,-0.34572914,-0.15573804,0.32070065,-0.18051142,-0.21711071,-0.1734941,-0.019886747,-0.050580073,-0.098232456,0.39896026,0.23984176,-0.24975426,-5.17518,-0.29989767,0.01352657,0.007631419,0.10659754,0.11109683,0.017633714,-0.22212923,-0.3029716,-0.1649459,0.04742246,0.5579749,-0.25291726,0.010171309,0.08752777,-0.1535709,-0.1583462,0.18906419,0.063507944,-0.33126757,-0.035051353,-0.22041118,-0.051074088,-0.09141335,0.22880745,0.0053810477,0.4967627,-0.25751737,0.15793112,0.3159663,0.23167019,0.071121335,-0.11802876,0.11134609,-0.19947371,0.25459448,0.13908516,-0.33883175,0.1675569,0.1984972,-0.067400634,0.17855416,-0.0465909,0.24295488,-0.102089316,0.08387102,-0.008794951,-0.22454828,-0.1370056,0.10324167,-0.16514574,0.22378129,-0.10056966,0.15641567,0.042563476,-0.05656399,-0.12785941,0.16577278,0.18683788,-0.40309477,0.1725764,-0.2566425,-0.10220751,-0.13220072,0.17224121,-0.17033568,0.19153583,-0.18534134,0.061224595,0.281818,0.010955926,-0.013984688,0.0149084665,-0.5738842,-0.20991544,0.17593524,-0.08489907,-0.482623,0.008423863,-0.17238678,-0.42175362,-0.19263148,0.039853938,-0.2930087,0.17790069,0.1575194,-0.095301755,-0.003081888,0.077310055,-0.1840752,-0.22349806,0.020094022,-0.102547705,0.050520077,-0.20632492,-0.121303484,-0.26402363,0.5719737,0.014232762,0.04369705,-0.29767606,0.047286883,0.20565751,-0.082929395,0.17304146,0.15417473,-0.18953483,-0.27537477,0.13058141,0.20802121,0.14994289,0.18956563,0.17862624,-0.055283323,0.108812734,0.036304846,-0.4858269,-0.20304048,0.2755803,0.25311583,0.41598135,0.16159481,-0.29567567,-0.09859739,-0.083830126,0.248303,-0.034107298,-0.10345511,0.12138873,0.143206,0.24457672,-0.020987589,0.2920802,0.10797498,-0.29101205,0.11308773,0.20044184,0.44601354,0.061579846,0.43657717,0.37651554,-0.06658771,-0.041209664,0.16298397,-0.2619621,0.06856527,0.16502443,0.20110846,0.056577638,-0.027091812,0.37716863,0.2163341,-0.1850712,0.05503866,-0.14048606,0.050117992,0.22608694,0.2174756,-0.09225776,-0.017565455,0.48705813,0.21269178,0.021905301,0.34527254,-0.07816002,0.038867816,-0.09290956,0.21604332,0.18874003,0.19211723,-0.17226253,-0.19703376,-0.10223088,-0.43387693,-0.029953748,0.11343232,-0.07467938,-0.204064,0.032032043,0.058868203,-0.2227399,-0.3134941,-0.17555821,-0.25229013,0.037463065,0.035927966,0.06084963,-0.051365398,-0.28815278,0.64141876,-0.14120294,0.21561554,0.019840429,-0.25559396,-0.2624308,0.0666039,-0.4003206,0.12025078,0.18926962,0.0734841,-0.2907999,0.19115366,-0.1113732,0.09749769,-0.12875652,-0.25348413,-0.039800793,-0.32497552,-0.23537484,0.040924102,-0.1747027,0.109396,-0.038495995,0.019113213,0.073393404,0.4360472,-0.22714391,-0.2944356,-0.06885827,-0.09834334,0.516487,0.12483375,-0.21449828,0.30882314,-0.031508107,-0.19459857,-0.07115711,0.042318024,-0.021349281,0.08372162,0.41191843,0.19478795,-0.18502647,-0.38375974,0.20850508,0.039994024,-0.25706404,-0.021937907,0.047761865,0.039997343,0.34277,0.27455395,0.036414593,0.04713113,0.044809528,-0.1826841,0.33236533,-0.24623528,-0.03461004,0.12222865,0.27991414,0.19979958,0.017532308,0.018336602,-0.10608664,0.6428345,0.40689582,0.2586458
K,-0.19995478,-0.025969148,0.1997109,-0.024924837,-0.040274777,-0.00482779,0.15835041,-0.10548196,-0.05272445,0.25021988,-0.26037276,-0.0106352195,-0.19740453,0.28974804,-0.057121813,-0.088484935,0.24191728,0.10674417,0.21309605,0.2189093,0.03459497,0.040910702,-0.17463635,0.11397496,-0.07373718,0.21245149,0.20927402,-0.046032354,-0.27351648,-0.18085203,0.01217782,0.21308109,0.18167914,0.051312894,0.30888766,-0.14906117,-0.15755703,-0.18772197,0.41994888,0.10458328,0.3875723,0.46574396,-0.17875768,0.0045497343,0.13849737,0.4642238,-0.41825414,-0.24188368,0.084818244,-0.03280605,-0.1785173,0.28574753,-0.086247176,-0.1935481,0.2305966,-0.18797399,0.017031271,-0.043799773,0.40406457,0.16061485,0.06958781,-0.15896669,-5.2550116,-0.039242037,-0.023058802,-0.10091073,0.36489683,0.028867863,0.3596378,0.11186312,0.17000797,-0.18210182,-0.06630068,0.09435177,-0.24459195,0.1740095,0.24893412,0.31658742,-0.16138878,0.24046616,-0.01857087,-0.09984042,0.16672337,-0.051971883,-0.07825242,-0.19308904,-0.17763758,0.11449868,0.09012824,0.16083895,-0.0853711,-0.0051974654,0.11081949,0.28740048,-0.07578248,0.066731565,0.017246954,0.29558864,-0.048555933,0.13574135,-0.064352214,-0.07417237,-0.040301323,-0.0077318456,-0.07852492,0.2624371,-0.12449016,-0.0036547482,-0.24963295,-0.15973446,0.0036557093,0.117963076,-0.08616863,-0.40104097,0.5503999,0.23545276,0.17151955,0.06823806,0.26584777,0.013859831,-0.21565236,0.07891473,0.31840122,-0.11510181,0.28798455,-0.00017621368,-0.31189752,-0.18479823,0.07443605,-0.028329156,0.089567795,-0.25804663,-0.3977753,-0.27150416,0.026349947,0.048907235,0.23690948,-0.12754434,0.037758045,-0.44499654,0.005205039,-0.23165132,-0.122145765,0.107204415,-0.046605732,-0.13704613,-0.0113081,-0.050210595,-0.2905704,-0.0746087,0.3765369,-0.007984355,-0.21630003,-0.120523326,-0.2798006,-0.22301319,0.018752627,0.17421937,-0.43296674,0.19352852,0.29213247,0.119396985,-0.028435007,0.053448,0.10726234,-0.17598246,0.07964872,-0.056896623,-0.2366043,-0.118331544,0.2690337,0.24923167,-0.1536958,0.1449247,-0.056932636,0.29096627,0.18134953,-0.13543615,0.03254994,-0.0036200844,0.06737233,-0.21767601,0.18089463,-0.022107987,0.03632178,0.0012397375,-0.011782767,0.18773669,0.2586849,-0.28272426,-0.1574217,0.102162495,0.4912882,0.11557562,-0.03625001,0.36117464,-0.048778348,0.35242474,0.008844487,0.24805886,-0.18183367,0.050313473,-0.002825114,0.103751116,0.2047006,-0.16972029,-0.032979634,-0.49679905,0.021847282,-0.015396597,0.17298037,-0.44775602,-0.2538494,0.17344654,0.3941488,-0.11181961,0.32406178,-0.28018004,0.59084576,0.27794376,-0.48020667,-0.20225625,0.43001515,0.35139886,-0.076353274,0.19150624,-0.12541723,0.050459594,-0.3125486,-0.19027212,-0.24439076,0.12488897,-0.15078373,0.060028143,0.12966296,0.08536781,0.21842179,-0.48562378,-0.03826502,-0.20743799,0.2611165,-0.15568984,-0.00054091215,0.25821388,0.12731883,-0.054152023,0.32726455,0.18489577,-0.043514494,0.021475501,-0.12004649,0.3604379,0.0899519,0.33470035,-0.07458573,-0.31601572,-0.006839099,-0.12324344,0.075627096,0.35317928,0.0036757477,0.19068915,-0.06540371,-0.18498355,-0.11934615,-0.07500617,0.2877923,-0.3815301,0.04282388,-0.28676414,0.10192963,0.15601315,-0.027830452,0.06337538,-0.002170466,-0.103139244,0.05041606,0.21910737,-0.28000212,-0.21978363,-0.09036611,0.057326354,0.30640602,-0.07586828,-0.33041734,0.33234215,-0.07039529,-0.20479381,-0.28493544,-0.3124375,0.041305803,-0.08005296,0.15203065,-0.53481436,-0.2856243,-0.07073141,0.108864374,-0.22266991,-0.2728736,-0.17200643,0.015870169,-0.42779812,0.4048995,0.22865213,-0.29254594,-0.15410197,-0.034207452,-0.16862777,0.086100385,0.014876388,-0.039441764,0.19522813,-0.31836447,-0.26023373,0.016147673,-0.2622417,0.010674141,0.26518148,0.12783195,-0.13030583
E,0.041917678,-0.40112802,0.37014052,0.003373812,-0.11981854,0.18115988,-0.017215636,-0.05974943,-0.048728243,0.087175325,-0.35993633,0.30858603,-0.15438469,0.08003134,-0.109598786,-0.013330997,0.18535313,-0.10030435,0.35161585,-0.108730994,0.22871885,0.39389852,-0.38906136,0.0881293,-0.24165949,0.23929188,-0.36449975,0.13321424,-0.16541745,0.15459691,-0.102825016,0.062139012,0.24091056,-0.18962824,-0.013430595,0.040594123,0.022368792,-0.29479283,0.42383802,-0.17898029,0.15481448,0.5077884,-0.13244098,-0.44882447,0.01833941,0.31728104,-0.6337558,-0.23756151,-0.105646595,-0.14936107,0.19363682,-0.11409259,-0.16568924,0.16689163,0.071334496,-0.31326488,0.17479971,0.025680251,0.28236693,0.06843783,-0.09493031,0.33362848,-5.1790805,-0.012782332,0.032835223,0.30771172,-0.1584413,0.16144347,0.19083022,0.1011688,-0.023490429,-0.02225858,-0.27720666,0.0777315,-0.3260769,0.14841324,-0.04030052,0.049530238,-0.10170427,0.08388682,0.3009042,-0.58747774,0.07376734,0.26909864,0.025974214,-0.14601646,-0.056364797,-0.26529974,-0.11705922,0.09686491,0.018704612,-0.28893384,-0.06709629,0.25797597,-0.11617951,0.12162461,-0.059628956,-0.16751641,0.28409606,-0.17971301,-0.004944325,-0.1684201,0.114456385,0.20732917,0.4152093,0.1307392,-0.12812977,0.11463103,-0.25084507,-0.27389258,0.11728944,-0.057698734,-0.08115812,-0.0010653734,0.1790748,-0.018056797,0.08265725,0.034648426,0.01116547,0.17725316,0.22961712,0.0977903,0.25923386,-0.13301171,0.3886278,-0.16527787,-0.45827407,-0.20754659,0.18063171,-0.03538726,-0.16612944,-0.009102058,-0.11683005,-0.18252723,-0.045476764,-0.40970793,0.068165064,0.1566114,0.53147525,-0.4986754,-0.38790527,-0.18384027,-0.29904142,0.36508766,-0.06410961,0.048436552,0.21684977,0.27022767,-0.20008814,0.40525165,0.14316486,-0.28981265,-0.14296412,-0.37450552,-0.35109508,-0.26561755,0.21942061,0.41719785,0.062436096,0.2616982,0.2104771,0.20953941,0.30700418,0.21458608,0.030290935,-0.0072135227,-0.03819366,-0.0185775,0.090532176,-0.11182324,0.25337583,-0.07322195,-0.18550937,-0.14692771,0.10951145,0.3380872,0.22984348,0.032105803,-0.19295861,0.18076314,0.292982,-0.2741921,0.22653143,0.25882357,0.10094939,0.18615039,-0.45868155,0.21676193,0.00895486,-0.050190717,0.0783012,0.26987934,0.41547206,-0.19710359,0.34185213,0.10959466,-0.27814895,-0.087518565,0.15736553,0.27317265,0.042417392,-0.052859034,0.20309342,-0.021858623,0.12897907,0.054399267,0.10603954,-0.28387463,0.14870282,0.17330275,-0.035712786,-0.3846232,0.23951101,-0.015677389,0.36406922,-0.15363318,-0.32678702,-0.1432963,0.3047477,0.11980517,-0.39458752,0.1296098,0.06701038,-0.09936319,0.011494107,0.097618535,-0.34834468,-0.095696986,0.27902007,0.027213223,0.26748306,0.03278128,0.08348167,-0.2043309,0.110027775,-0.22802669,0.29074708,0.24320576,0.15526116,-0.33592644,-0.13296962,0.22607517,-0.008401973,-0.02046828,0.18914226,0.25397298,0.39333242,-0.074384816,0.34702274,-0.083067626,0.06572051,0.20279992,-0.22500423,0.033683475,0.0949411,-0.16788265,0.010817323,-0.16790044,-0.4438549,0.1563136,-0.20978323,0.12919104,-0.1077501,0.22641782,-0.020939477,0.016085856,-0.016586896,-0.20975569,-0.1456269,-0.34092095,-0.16426323,0.34091085,0.18732104,-0.1581864,-0.10220322,-0.29172796,0.10265451,0.010590567,0.0022828132,-0.24704376,0.008782603,0.095642686,0.022525575,-0.22537583,0.22626522,0.3200097,0.13663152,-0.088419765,-0.43107897,-0.2713629,-0.14105016,0.031334154,0.23972358,-0.13652267,-0.06307675,0.17885396,0.10589312,-0.40392342,-0.2419262,0.013830237,-0.092582054,-0.17325072,0.08093336,-0.06618028,-0.1591322,-0.19040738,0.40215886,-0.043452464,0.2495665,-0.62825173,-0.004492821,0.55252874,-0.270576,0.41010082,-0.1981494,-0.22995289,-0.06703881,0.11029007,0.017465264,-0.06381567
L,0.20231804,-0.30242622,0.48515585,0.40669215,0.1489057,-0.326503,0.016702242,0.08075372,-0.07790665,-0.15328631,0.082258105,0.020628188,0.10244365,0.11057894,0.3036039,0.24737921,0.12737192,0.08537249,0.035145544,0.23615488,-0.22794941,0.022743989,-0.13000332,-0.12804528,0.15468381,0.005939916,0.01287102,0.016153641,0.09806906,0.052709635,-0.040166162,0.077497184,-0.075319216,-0.41274017,0.11184654,-0.266673,-0.12415913,-0.06385292,0.20807126,0.3323347,-0.36288872,0.5437687,-0.10870449,-0.24924086,0.39285383,0.08726144,-0.6909388,0.08985611,-0.15509059,-0.20586233,0.01224325,-0.2218139,0.09986614,0.15265043,0.31878525,-0.16723476,-0.054079093,0.091658905,-0.24856192,0.21901032,-0.24466847,-0.22665773,-5.1576552,0.04782986,-0.18179986,-0.19581878,-0.017088018,0.3388077,-0.09002569,0.12161578,-0.44053602,-0.42677483,-0.035689875,0.31265068,-0.039809845,0.07618402,-0.10282154,0.26928225,-0.09744857,0.056829263,0.49457344,-0.08977374,0.13474149,0.04024699,0.1505753,-0.19607049,-0.24296434,-0.15556696,0.07135022,-0.09725015,-0.1633102,0.051000305,-0.018549267,0.04863496,0.19217068,0.07957226,-0.09956708,-0.07524665,-0.037339527,-0.6370392,-0.17291497,-0.084815435,-0.24735665,-0.14700472,0.35864937,0.0640275,0.101483375,0.098986715,0.105927065,-0.05148544,0.23008499,0.16672906,-0.0077723004,-0.10959545,0.1762432,0.35983458,-0.0615829,0.007656146,0.052589163,-0.1312109,-0.006135782,-0.42447722,0.15879878,-0.013703749,-0.24736854,-0.10698537,0.2878919,-0.23828246,0.07801669,-0.26277372,0.084094286,0.19794908,0.20035166,0.07652472,0.03469722,-0.03191363,-0.054810528,-0.18812048,0.04765594,-0.3889764,0.088197604,-0.6063769,-0.24474742,0.08944729,0.055556595,-0.2058685,0.106527045,0.015226692,-0.19268446,0.5339486,0.22881779,-0.3054585,-0.5699513,-0.2999805,-0.25236598,-0.17202389,0.36905524,0.24374132,0.0651126,0.18703291,0.080254264,-0.05108425,-0.14378187,0.313929,-0.27351293,-0.1809056,0.19386305,-0.3112118,0.06589808,0.0726086,0.15076117,0.12265913,-0.14152738,-0.035253055,0.21726012,0.009397941,0.54039145,0.12454605,-0.31608444,0.05201528,0.2488156,-0.3537061,0.3386589,-0.005967201,-0.017429356,0.09087923,-0.32731786,-0.08349185,-0.14768152,-0.3272827,0.05652649,0.021941116,0.26221097,0.116674855,0.046614908,0.011781566,-0.31667575,0.014357075,0.19517237,0.59521884,0.036373004,0.30147853,0.1537024,-0.07925252,-0.07955264,0.08054349,0.16761063,0.077111,0.2795015,0.415412,-0.14333999,-0.17508166,0.12055053,0.017108234,0.16438667,0.19262242,-0.09218303,0.19012032,-0.031487282,0.03580652,0.25921732,-0.001417119,0.20105284,0.19035748,0.12237775,0.201438,-0.2520476,-0.06492562,-0.24770966,0.06944476,0.023446307,0.1697708,0.13981691,-0.38673243,0.31471938,-0.21838114,0.27675855,0.18026948,0.40133914,-0.01116439,0.04919505,-0.026550658,-0.0335661,-0.17696519,0.23399934,-0.15147981,-0.058278844,-0.12779814,0.16115542,-0.1912312,-0.032603886,-0.51104313,-0.20622928,0.27318,-0.31653398,0.10508785,-0.27143297,0.016750015,0.14564985,0.16626441,0.136905,0.08211675,-0.28992653,-0.21160455,-0.12260915,-0.09099079,0.09321461,-0.35187364,0.0454083,-0.51820076,-0.2220742,0.34985414,0.16357097,0.11729853,-0.27762482,0.16059837,0.09978502,0.25739446,0.14957163,0.0204043,-0.27713835,0.01714804,0.04519792,-0.12759061,0.5051852,0.44801423,0.11060701,-0.16871867,0.10554011,-0.23498562,-0.025681123,0.087339684,0.5990537,-0.10385433,-0.288746,-0.4394992,-0.08275526,-0.22517166,-0.07118493,0.13666168,0.18635315,0.069874644,0.13589892,0.2919853,-0.03493129,-0.15758017,0.103661075,-0.11173506,-0.064215265,0.026279483,-0.2119356,0.3327911,-0.020278698,0.19409394,-0.028570844,-0.08839901,-0.15718022,0.30511263,0.049277544,0.19744176
R,-0.0759539,-0.08521277,0.33735117,0.33452752,-0.35891384,0.060600564,0.10944718,0.21568903,-0.6151848,0.115664855,-0.31329384,0.33849517,-0.06773846,0.39656422,-0.041244946,-0.14135969,-0.12823957,-0.057337288,0.29004586,0.21316075,-0.160862,-0.08613329,-0.23933762,0.056214806,0.19720297,-0.15558633,-0.048957523,-0.12561777,-0.37862062,-0.27529794,-0.08013413,0.08743089,-0.07787509,-0.20240317,-0.06171765,-0.36743155,-0.11838618,0.14963517,0.507755,0.44381922,0.04622916,0.30724692,0.030237218,-0.12921588,0.13622062,0.14080942,-0.4494896,0.3382207,-0.4710257,0.04139878,-0.27415702,-0.022590812,0.32723725,-0.058526777,0.25971645,-0.54758453,0.20662417,0.06422587,-0.20538148,0.17807585,0.10327406,0.08574406,-5.2274475,-0.24979846,0.23624139,0.15669034,0.03558478,0.1851613,-0.029104494,0.30955908,-0.3431222,-0.1692363,-0.23464113,0.29336104,-0.24883571,-0.10548848,-0.11964015,0.042948835,0.060829446,0.4328447,-0.081185125,-0.047643263,0.019033112,-0.122770205,0.0043767467,-0.17844403,0.2825065,-0.0106210485,-0.0433829,0.1287258,0.049542297,-0.21831656,0.10665789,0.22902852,-0.010653257,0.16045406,-0.12053653,0.39287463,0.19158751,-0.31094852,0.05155631,0.06929683,-0.056716856,-0.04737497,0.36022496,0.1296922,-0.1830455,0.24037856,0.04887781,-0.25942814,0.042724557,-0.022352684,0.06854265,0.022325791,0.29078573,-0.17647623,-0.05456703,-0.039371617,0.12293294,-0.15929826,0.58630836,0.009972133,0.04995933,-0.02020825,-0.10910869,0.0029275902,0.087751314,-0.13967094,0.08673387,-0.38132116,0.27073473,0.11523143,-0.12922007,0.14078474,-0.15470023,-0.2754317,0.16637397,0.29358083,-0.20368135,-0.040401056,-0.056276403,-0.13769984,-0.17184672,0.06048555,0.19930407,-0.40551108,-0.10758494,-0.0026938096,-0.33774084,0.24519026,0.2488612,-0.18538667,-0.26558855,0.07934494,-0.014079098,-0.23122941,-0.19413541,-0.106608175,-0.2573365,0.15088718,0.19241163,-0.015092338,-0.20976758,0.31559846,-0.1112995,-0.11868602,-0.07429046,0.1500168,0.1635895,-0.42786965,-0.14735915,-0.12589355,0.0015078932,0.07314373,-0.03280415,0.023276374,0.11488593,0.035714045,-0.33660355,-0.028874844,0.2666719,-0.22778085,0.21525264,-0.11321016,-0.09911736,0.19777253,-0.34250948,-0.043058366,-0.092196375,-0.045917057,0.47889435,0.38162556,0.425299,0.007820284,0.39634332,-0.017064542,-0.22058035,0.21579911,0.07553229,0.16439931,0.14360225,0.29543567,0.43773714,0.14552751,0.06241072,-0.04583241,-0.14727858,0.20474437,0.23453954,-0.010551744,-0.20131654,-0.23600684,-0.114738464,0.03409455,0.38790172,0.14906186,0.109598726,-0.05260782,0.37366557,0.2577589,-0.17847343,-0.2767843,0.291917,0.20202832,0.00069999136,0.43279,0.024778288,0.33731395,-0.2831357,-0.28078997,0.048421957,-0.34238476,0.044841103,-0.018458162,-0.28898978,-0.1770275,0.1743935,0.029547513,0.28567767,0.23248054,0.21468747,0.09899269,0.104770005,-0.38771927,-0.073811315,0.1667832,0.08560488,0.0022125468,0.17701823,-0.014317185,-0.32258615,-0.0747637,-0.17971289,0.12518689,-0.1579065,0.16889423,-0.16023888,-0.08790743,-0.17440481,-0.02516793,-0.036123343,0.27311498,0.12201708,-0.06533807,-0.22574705,-0.08059484,-0.2997151,-0.2669062,0.08007118,-0.03168477,-0.07538359,-0.34981665,-0.38435563,0.2802138,0.27337068,-0.111810505,0.25750548,0.007895997,-0.1303371,-0.09720393,-0.46435726,-0.08781696,0.42064822,0.021452934,-0.027842537,0.23481753,-0.22815287,-0.3538161,-0.29383907,-0.11995737,0.0033830851,-0.15677652,0.11832827,-0.032004602,0.060506567,-0.14069994,-0.018627279,-0.23138429,-0.16843078,0.026680946,0.37163895,-0.080373,0.2647735,0.21193707,0.23519996,-0.39573225,-0.02554461,0.1590352,0.15171276,-0.031232916,-0.012699494,0.39409003,0.07060569,-0.09917472,0.052837104,-0.02649865,-0.2135174,0.10945024,0.30883917,0.2715485
E,-0.034695793,-0.50519586,0.24322015,-0.034568325,-0.11708835,-0.09497822,-0.011590119,0.07628281,0.043362856,-0.06696526,-0.4373414,0.17427202,-0.04772111,0.25888845,-0.09831658,-0.0702892,0.32674423,0.014778354,0.32140428,-0.024007075,0.32402614,0.09142617,-0.2987287,0.083094575,-0.08968359,-0.07311535,-0.10252346,0.026290126,-0.19175413,-0.011885122,0.005136488,0.3308157,0.25035447,0.08730036,0.040097326,-0.05606652,0.06818853,-0.19738156,0.49551892,-0.12665999,0.117100246,0.6112453,-0.44998044,-0.2487659,0.12013242,0.49666774,-0.94462997,-0.13356008,-0.2734952,-0.25436133,-0.15726277,-0.019805862,-0.016689349,0.29481858,-0.003145896,-0.13896936,0.18067129,0.033497,0.49565506,0.06334255,-0.056421705,0.1769105,-5.226983,0.0918733,-0.18685573,0.17448336,-0.158171,-0.1374348,0.12703687,0.10789138,0.13388468,-0.009879102,-0.32073462,-0.017356742,-0.2286396,0.21280599,0.0052913707,0.1077878,-0.17838623,0.1352115,0.3104276,-0.43632203,-0.0067285746,0.16840151,-0.16697551,-0.19178316,-0.15626022,-0.2725975,-0.010219857,0.30168557,0.037114806,-0.24046177,0.20350282,0.22483194,0.16660056,0.048291005,-0.14857817,0.044408582,0.32406175,0.17765865,0.047189683,0.012780622,-0.12421873,0.117650665,0.112937465,0.20796767,0.019362457,0.15346543,-0.21338674,-0.1865376,0.08553837,0.05749488,0.12103292,-0.051950835,0.02064503,-0.010106792,0.12336248,-0.021173023,-0.034721714,0.19588332,0.280516,0.10512103,0.19727314,-0.05823052,0.25820616,0.012986142,-0.2776057,-0.1827862,0.1712394,-0.084684215,-0.054155625,-0.36121807,-0.25448585,-0.043441746,0.026220653,-0.04425203,0.16920401,-0.0916146,0.2966647,-0.29305568,-0.3272058,0.00024635345,-0.2070579,0.4154152,0.021769263,-0.14753419,0.21256939,0.13964412,-0.21814728,-0.03295842,0.41063985,-0.07937063,0.017421447,-0.5533298,-0.2507358,-0.22789499,0.008380797,0.1971582,0.16964917,0.31188813,0.1969686,0.1431943,0.122101516,-0.1626154,0.22662526,0.081240445,-0.09740834,-0.061052382,0.06632214,-0.1322064,0.41434637,0.2139633,0.077488564,-0.11344625,0.08551143,0.30686677,0.22993134,0.008537322,-0.16440281,-0.03089951,0.41135716,-0.27640387,0.181579,0.1911993,0.08284277,-0.10755476,-0.31802917,0.24328507,0.039259225,0.0827566,0.07576499,0.4516354,0.46351048,-0.112126835,0.26574564,0.42714483,-0.3419377,-0.17397106,0.1562995,0.12347551,-0.012853131,0.13260005,0.27943853,0.0574022,0.23017105,0.22209072,0.18348362,-0.47292408,0.032656282,0.22203906,-0.10227464,-0.38584337,0.054614812,0.102003075,0.34137818,-0.057376225,-0.29771307,-0.3862787,0.33619985,0.15480399,-0.3655784,-0.18891655,0.08540849,0.16291776,0.12082104,0.050123207,-0.10580964,-0.083941445,0.07642594,0.10172664,0.19347622,0.15622249,-0.12634987,-0.2826205,-0.02788663,-0.15264297,0.16973191,0.054411307,0.038275484,-0.31677708,-0.2971511,0.19510148,-0.052215695,0.072326,0.011315092,0.21159959,0.26436213,0.024873134,0.1556982,0.077563435,-0.14676745,0.1400182,-0.10970143,0.021473248,0.1453792,-0.21018712,0.028988823,-0.27366042,-0.2874601,0.02866523,-0.31771722,0.21508107,-0.020531476,-0.050105035,-0.04315517,0.14533912,-0.04143416,-0.3650188,-0.054776907,-0.10141374,-0.108283244,0.29328227,0.25695145,-0.0053120404,-0.14998196,-0.48290253,-0.0014757365,0.03483448,-0.14605507,-0.20287581,-0.17887914,0.123445205,0.08898017,-0.24118228,0.2732024,0.14876027,-0.072275765,-0.03330726,-0.30667853,-0.23119316,-0.10825975,-0.21606033,0.27645105,0.037884817,-0.1082487,0.1930918,0.050524548,-0.39016455,-0.5746652,-0.0663771,-0.13072422,-0.23840587,-0.13258636,0.08921071,0.018579468,-0.058120873,0.19869806,0.058379464,0.28128535,-0.4516053,0.1860625,0.375812,-0.27897036,0.07934928,-0.0026015379,-0.06726018,-0.03471806,0.24020061,-0.01767564,-0.062143013
S,-0.15977871,-0.3155243,0.11474536,-0.27727222,-0.18115827,0.30474755,-0.14866221,0.0014609545,-0.43964028,0.14477822,-0.08372097,-0.11437297,-0.36034223,0.339294,0.019238016,0.05726918,-0.03157025,0.075179234,-0.11876896,-0.11696677,0.26236644,0.11630504,-0.2829584,-0.022104356,-0.26304656,0.11732577,-0.014904968,-0.13689147,-0.15185285,0.06902054,-0.28721866,0.017824389,-0.016516577,-0.44481182,0.1832098,-0.16026005,0.27118117,0.07416322,0.46927077,0.27049896,-0.31743577,0.25057328,-0.16033112,-0.3351434,-0.016862674,0.1777828,-0.9634121,0.24523458,-0.070003,-0.2012952,-0.097547606,0.12933715,0.21134263,-0.055665694,-0.17799845,-0.5456111,-0.01577768,0.31643435,0.012533763,0.28510714,0.01451127,0.22255428,-5.1885266,-0.037693124,-0.14596784,-0.083394796,0.27398828,-0.070605576,0.16073121,0.49221116,-0.30528885,0.1576353,0.25504208,-0.043051526,0.03963238,0.23855695,-0.08162156,0.063171774,-0.05538689,0.32941288,0.029085577,-0.37512693,-0.28756097,-0.122909725,0.09200038,0.07992701,0.29641268,-0.20600393,-0.09977251,0.013214907,0.14647405,0.25788656,0.17966068,0.0013703704,-0.3732312,0.15505585,-0.4789189,0.3584028,-0.12812835,-0.34307674,0.14378662,-0.15587689,0.35232666,0.22454566,-0.023984827,0.27006552,-0.04977014,0.07338753,-0.26240003,-0.20418285,0.4182329,0.15267505,-0.22889653,0.16824993,0.05274454,0.009285636,-0.04046582,-0.11535826,0.11898394,-0.050283168,0.03191412,-0.25341505,0.06638692,-0.12000946,0.5166136,-0.12195279,-0.030777954,-0.058330726,0.02665959,0.13428539,-0.053246576,0.25958687,-0.260397,-0.13753375,0.0039874353,-0.08409014,0.12861885,-0.060194127,0.17898233,-0.2377176,-0.31305936,-0.056935064,-0.27221048,0.35696143,-0.10135333,-0.0172657,0.14461495,0.6293595,-0.43435135,0.45237535,0.0288888,0.22913495,-0.23662092,0.23976389,-0.41173217,-0.0121025,0.2658004,0.3679283,-0.12623358,0.35961932,0.2974288,0.09164736,-0.05130881,-0.01696083,-0.0018848497,-0.23651728,-0.119113274,-0.09572042,0.10269607,-0.11261885,0.0063884985,-0.34027967,-0.28858617,0.07798096,-0.02896094,0.18567564,0.19690117,-0.2919668,0.122085944,-0.13508579,0.12286432,-0.19521233,-0.04810247,-0.08777374,0.059188947,0.48784405,-0.15734336,-0.012003198,0.026232652,-0.16547155,-0.10615482,-0.22346923,0.17039289,0.02291768,0.22273502,0.2643982,-0.14517859,0.31715408,0.46288502,0.42991012,0.24919276,0.23407605,0.0575244,0.10561995,-0.2976215,0.06519425,0.23502854,-0.26868597,0.30374435,0.039853957,0.036461644,-0.32806835,0.21162103,0.18257335,0.3900846,0.02139695,-0.14001082,-0.15556397,0.34342092,-0.003793098,-0.2547999,-0.11890355,0.2785856,-0.0318577,-0.06556703,0.06184496,-0.23564357,0.12568736,-0.009172081,-0.053307563,0.053036332,-0.19252166,0.3768922,-0.2442114,0.31645522,0.21353154,0.0804946,-0.123747,0.44068605,-0.2825695,-0.14683482,0.08034102,-0.09881831,0.11822058,-0.025731683,0.03388598,0.02592231,0.28379717,-0.22427699,-0.12726319,-0.046137013,0.050649934,0.10874066,0.061533004,-0.017661203,-0.20529565,-0.1647954,-0.12288361,-0.053444345,-0.22053434,-0.044432357,0.035617307,-0.2594447,0.36693347,-0.14576295,-0.12679955,0.16197842,-0.5903841,-0.1496589,-0.19972628,-0.15627868,0.25832233,0.17156547,0.16868317,0.17228721,-0.13881946,-0.097485445,0.06516858,0.093775384,-0.12098688,-0.041911706,0.32870534,0.39307624,0.039593965,0.13193782,0.33470365,-0.026908707,0.117854595,-0.3185441,-0.11729494,0.025545932,-0.16207466,0.15018241,0.038404956,0.06442836,0.07163904,0.2868076,-0.17875999,0.018200345,0.22128269,-0.1004176,-0.2325744,0.43975067,0.13979596,-0.2809283,-0.1624486,0.09786193,-0.07590326,-0.23406905,-0.06591168,-0.025781006,-0.10550865,-0.10061074,0.27614754,-0.31125864,-0.06119371,-0.08843355,0.45500547,0.20919235,-0.08390473
T,-0.21826538,0.19843271,-0.19370918,0.3112894,-0.10905506,-0.095037445,-0.6082662,-0.03470861,-0.30382696,-0.12428078,0.2939435,0.2349222,0.07454599,-0.08956956,0.08286004,0.20307101,-0.11410568,-0.04838134,-0.24761184,0.37211326,0.22155477,-0.018126098,0.04976447,0.115718,0.62782055,-0.05759149,-0.30512184,-0.2001627,-0.11412847,0.18058194,-0.0827977,0.077659085,-0.19457433,-0.40573096,0.012098275,0.17655933,0.105758235,0.046736054,0.13994652,0.25217906,-0.27797875,-0.040616166,-0.22137755,0.21200061,0.04828745,0.17740873,-0.7621396,0.19177532,-0.4184351,-0.10661296,0.024609108,-0.08270681,0.40416026,-0.08511207,-0.14594966,-0.0829924,-0.14342146,0.29794514,-0.4183734,0.22780567,-0.013644892,0.087889254,-5.1816883,-0.28921765,0.23539726,0.07930081,0.0024525598,0.24544,-0.14034474,0.2467283,-0.4142777,-0.11864449,-0.11309443,0.23487449,-0.39399707,0.007858902,-0.3054238,0.013725307,-0.08606299,-0.2110446,0.018865936,-0.33767432,-0.27274054,0.093783185,-0.22683743,-0.24339297,0.27841353,0.0011610091,-0.073304914,-0.18885355,0.024402905,0.042667583,0.13081051,-0.00970681,0.28432354,0.18257368,-0.11208571,0.42366326,-0.110571735,-0.08972862,-0.07282344,0.070922434,-0.2593379,0.101944976,0.3569458,-0.015499961,0.02845759,-0.16696326,-0.27711815,-0.18857762,-0.10825915,0.20847969,0.17740244,-0.18295453,-0.026731174,0.45852444,-0.019726586,0.039339446,-0.4088684,0.011954591,0.19377895,0.17053565,0.07697746,0.30974302,0.031095833,0.22664452,0.2657903,-0.16218185,0.23561376,0.17465498,0.18560049,-0.08363018,-0.1040708,0.07636966,-0.16902643,0.17180938,-0.26302117,-0.33114666,-0.09853054,-0.16750608,0.25968444,-0.17964312,0.050629646,0.24757431,0.1176106,0.18016952,0.22526789,-0.10551661,-0.2053625,0.5112751,0.068817735,-0.014696363,-0.17348525,0.012277633,-0.1423781,-0.4074508,0.33560574,0.22984236,-0.063147396,0.3168761,0.27050346,-0.37543064,0.4047138,0.056305982,-0.19182946,-0.17863299,-0.075327784,0.16816045,0.1092356,0.29662725,-0.57526934,0.30714777,-0.19050285,-0.06443511,-0.24105917,0.0016676225,0.4046709,-0.12615648,-0.34244588,0.032244425,0.018725477,-0.41163516,0.083706245,0.0482963,-0.03146883,-0.100575686,-0.24600023,-0.09237577,0.13620391,-0.23297337,0.3828811,-0.10209234,0.31962043,0.24345618,0.21255103,-0.19462201,-0.16309266,0.06102398,0.18819341,0.2675135,0.0019479506,0.2804317,-0.022557918,0.24001595,-0.16869798,0.1827865,-0.41929013,-0.06130573,0.03346254,-0.022080824,0.16475576,-0.41528666,-0.07104458,0.16701388,0.40336084,0.20721832,-0.2593894,-0.11830471,0.2813632,-0.23118074,-0.26351988,-0.066774786,0.057458147,0.2852732,-0.21233453,-0.20650853,-0.20999628,-0.1302697,-0.15701282,-0.16826814,0.21568763,0.10294023,0.22659378,0.086378366,0.14774701,-0.12507033,-0.006777391,0.083109364,-0.066941574,0.18658625,0.10622977,-0.056512475,-0.1142436,-0.40607026,0.12944508,0.07907677,0.20730759,-0.06796827,0.13147604,-0.09315352,0.032568328,-0.12782156,-0.23367098,-0.18781923,-0.06179113,0.4033166,0.0008971691,-0.027170572,0.053938843,0.1093204,0.16686209,0.4514708,0.20976573,0.02083151,0.20047632,0.049219623,0.0043250024,-0.25145543,0.2536208,-0.14266482,0.05819227,-0.23364615,0.4167404,0.12543184,-0.14852643,0.14845514,-0.0023140814,0.012229291,0.10562471,-0.05753763,-0.3662824,-0.3183423,0.07067101,0.21339273,0.66196156,0.34034163,-0.20983894,0.004397314,-0.1820632,0.24483639,-0.025829896,-0.015028566,0.32406878,0.014556551,-0.1773201,0.099282935,-0.12336521,-0.06732456,0.24166527,-0.09692315,-0.08828197,0.12624842,-0.10886398,0.06398208,0.021751337,-0.25242656,0.2374076,0.044589892,-0.14333372,-0.6357056,0.40163526,0.37308174,0.04710692,0.20053095,-0.07122283,-0.21610063,-0.10948931,0.8078202,0.0161408,-0.17306498
G,-0.030468311,-0.25048053,0.16984881,0.007783117,-0.019741572,0.24216786,-0.007249452,-0.33605164,-0.21147454,-0.19319107,-0.22638482,0.1152059,-0.15968062,-0.041561503,-0.07411952,-0.059674557,0.06064789,-0.070507884,0.16764387,0.48988724,-0.07984118,-0.07250573,-0.08903875,-0.090145074,-0.03973889,0.23220423,-0.078546874,-0.1964917,0.16696848,-0.019361874,-0.37641725,-0.03638693,0.37163162,-0.17034182,0.19612083,0.111835614,-0.009644,-0.0849206,0.68195623,0.18520032,-0.21637677,0.26819614,-0.44467923,-0.075714275,-0.041935798,0.24159542,-1.0046868,0.31796768,-0.3838252,0.05366587,-0.4336193,0.22798157,0.16817679,0.19859417,-0.027017836,-0.5097221,0.019748384,0.027404793,0.006249503,0.26487258,-0.26378712,-0.105231605,-5.1430197,-0.111864634,0.066272385,-0.04409379,0.23259853,0.042664364,-0.27644145,0.069989845,-0.24963391,-0.14083591,-0.29313755,0.22878827,0.0050254576,0.4040134,-0.3823167,0.47637606,0.086527504,0.0953485,0.27835098,0.15418085,-0.04844173,0.04326956,-0.108680114,-0.1930629,0.03477148,0.10036552,0.08817917,-0.12517156,0.008636894,0.0993084,0.21981628,0.03211301,0.3107257,0.1180978,0.14512703,0.4429195,-0.13951135,-0.085616216,0.0068365503,0.21339273,-0.18448803,-0.11312728,-0.21346603,0.20130476,0.19555286,0.026244208,-0.33401385,-0.047650658,0.01946168,0.2099048,0.13545847,-0.11102073,0.07789959,0.23039997,-0.030751586,-0.015951391,-0.41916287,0.16277581,0.22284788,0.36442026,0.52962047,0.096377,0.10412248,0.15953793,-0.20569888,-0.0019889586,-0.15641876,-0.25974151,0.3705364,-0.2800063,-0.35572168,0.032016084,0.26112342,-0.047508173,0.06916775,-0.30609953,0.042886466,0.015477448,0.15204039,-0.1631768,-0.15366562,0.06809378,0.24009028,0.140294,-0.14528972,0.23216741,-0.20441654,0.25722778,0.25431255,0.2978195,0.057391644,-0.02726204,-0.5071005,0.12571093,0.32982343,0.086905025,-0.1651216,0.44453284,-0.17495498,-0.1080716,-0.26042145,-0.015326278,0.0018398641,0.05931562,0.19817945,0.1774839,0.029015664,-0.3376938,-0.13459712,0.008583201,0.11043794,0.039996672,-0.18761355,0.35105255,0.3176567,-0.21824686,-0.46211606,-0.14854237,0.034573525,-0.18019268,-0.31903008,0.07082739,-0.21910918,0.34560403,-0.003446413,0.14177197,-0.018500129,-0.18243475,0.09197198,-0.10168587,0.22380276,0.1361123,0.14018306,0.047269046,-0.08409567,-0.04734648,0.33066916,0.24034813,0.26053208,0.23549244,0.02390131,0.18964925,-0.26381645,0.2387403,0.1818818,0.43760398,0.010133538,0.11719741,0.12671234,-0.22434388,-0.121591985,0.030522974,0.029526815,0.07343243,-0.21583968,-0.6693219,0.026590921,0.14942935,-0.36234355,0.08284721,0.26471338,0.20725028,0.034670696,-0.25125057,-0.29954827,0.08265114,-0.05277782,-0.32704264,0.03685815,-0.17592956,0.17907865,-0.2255014,-0.21049827,-0.45503676,-0.22739486,0.019481838,-0.15804456,-0.1146653,-0.027964652,-0.18226644,0.10557786,-0.1808107,0.014246732,-0.303455,0.18136814,0.19113284,-0.13100426,0.17557663,0.21305269,-0.33938405,0.4010655,-0.14342357,-0.03049399,0.039406724,0.0045297854,0.053537264,0.11043689,-0.004838325,-0.06746944,0.3870646,-0.12135562,-0.06484132,-0.20384991,0.33734706,0.05940146,-0.21905215,0.21503168,-0.22409722,0.33961648,-0.06455198,0.18293282,0.06480274,0.15564586,0.25683048,0.44328505,0.18842527,0.11895338,0.22536282,0.21041493,-0.14286585,0.3097755,0.114500925,0.12568778,0.056545064,0.1439012,-0.0392956,-0.16099574,-0.16300817,0.23360589,-0.027197115,0.30035886,-0.07021003,0.5692084,-0.24970374,0.05988457,-0.23054396,-0.26064545,0.16835245,-0.31317446,-0.0376691,0.021922223,-0.13098513,-0.034071323,-0.10847282,0.10566026,-0.25550738,-0.17798358,-0.26690072,0.2656742,0.077209055,-0.5080256,-0.09246749,0.031045355,-0.22277884,-0.31267944,0.2908111,0.09677492,-0.16765884
A,0.3391386,0.09856245,0.124214604,0.29995754,0.009081338,0.15654726,-0.12944739,-0.00958013,-0.1592044,-0.3272503,0.004787458,-0.08585225,-0.012816932,0.17095993,-0.28997293,-0.064164415,-0.17771503,0.2613422,0.057407722,0.121307,-0.39303076,0.02971464,-0.13179857,0.35424647,0.17323811,0.21046016,0.15027991,-0.016813066,-0.06356248,0.16551812,-0.26443264,-0.018966902,0.37922084,0.15020797,0.05237855,-0.5305535,0.29280335,-0.04813777,0.5933494,0.042304605,0.28704914,0.48041195,0.120517306,-0.14728081,0.02326475,0.16348243,-1.1845152,0.302555,-0.2601161,-0.14915076,-0.07866199,0.08324843,0.2928285,-0.32974535,-0.05956068,-0.12806252,0.27429944,0.12598063,0.027037133,0.28501463,-0.1042192,0.34908417,-5.0899916,0.029409535,-0.037998892,-0.14659227,0.21763512,0.025769323,0.46100965,0.14880592,-0.49100143,-0.05742354,-0.011208899,0.067068994,-0.3990071,0.21198776,0.06230583,0.26242793,0.030288855,0.12019912,0.18202043,-0.4972079,-0.043492086,0.10939829,-0.5180791,-0.5915774,0.18425727,0.10675209,0.210127,0.13018584,0.018150842,0.026595488,0.42468923,-0.3777198,0.3379346,0.06305644,0.088780224,0.29103068,-0.056958348,-0.15087153,-0.15559135,-0.02744271,0.16344824,0.15608934,-0.12585866,0.06632468,0.04702624,0.47589326,-0.3467398,-0.424333,0.18300538,0.25265315,0.0975617,0.12785621,0.26239604,-0.17495532,-0.15210445,-0.14876306,-0.3851663,-0.118923984,-0.051583547,0.21778786,0.40063506,0.11724384,-0.030776307,-0.16810384,-0.09752984,0.16638143,0.033144154,-0.10178775,-0.21722919,-0.1747565,0.378728,0.2170828,-0.107649416,0.05038112,-0.2200384,-0.29038152,-0.18203418,0.051591102,-0.1293062,-0.23537111,-0.11093835,0.37316042,-0.14033458,-0.12776005,0.05640267,0.063027374,-0.17029727,0.064213105,0.3050801,-0.21136457,-0.50782204,0.08364165,-0.041270413,-0.064309955,0.3153055,-0.051582612,-0.03340925,0.5326891,0.094044164,-0.29567435,0.21440332,0.33931416,-0.089312784,-0.0072413823,-0.24058403,-0.13140793,0.2767211,-0.23442034,0.25650063,0.2278344,0.3496099,0.20573029,0.37994778,-0.14282997,0.29899237,0.045724764,-0.49139333,-0.06350041,-0.037509225,-0.31215495,-0.13566235,0.103946954,0.17638418,0.036075532,-0.33003375,0.31674522,0.17127548,-0.07817302,0.33014172,0.057330795,0.26408693,-0.2732407,0.32904345,0.3816019,-0.15474993,0.06823161,0.0015612543,0.31060982,-0.09669666,0.20140916,0.15867856,0.05067618,0.042410426,-0.33988392,-0.30053425,0.039015945,0.24325672,0.20110746,0.08632739,-0.02803487,0.036676448,-0.2205111,0.18224752,0.030181497,0.008981885,0.063833304,0.15819447,0.2471408,-0.094826,-0.13662589,0.03074598,0.2193552,0.0007711109,-0.22471589,-0.2811814,-0.36913064,-0.0847271,-0.28221887,0.17519452,0.32201752,0.30372268,-0.29680255,0.5012155,0.11005304,0.022130512,0.068430215,0.08486149,0.10734868,0.2848334,-0.13312204,0.15798809,0.04875327,0.04211828,-0.30487436,0.19250974,0.19682862,-0.09883309,-0.20473474,0.11956687,0.08156869,-0.29894018,0.44342607,-0.22871059,-0.10315332,-0.11726949,0.08657542,0.18427522,-0.25500932,0.039540328,0.01243037,-0.231893,-0.084873065,-0.07446244,-0.05014594,0.20553724,-0.19719377,0.10223667,-0.1417356,-0.028432906,0.038059704,-0.16246061,0.2877222,-0.27060956,0.0095791,0.023252629,-0.22784087,-0.34777197,-0.10227522,-0.32667184,-0.17430589,0.10875023,-0.06631458,0.3383917,0.46953294,-0.20969269,-0.16170457,-0.08780912,-0.11730172,-0.09032607,-0.030852716,0.047020737,-0.24559209,0.5238605,0.019666273,0.13162272,0.16050331,-0.45768708,-0.1213431,-0.3254129,-0.31590205,0.058279216,0.19269182,-0.38786706,-0.13042048,-0.009065757,-0.26151392,-0.04740935,-0.10874746,0.041735396,-0.24337429,0.120097935,-0.024209507,-0.08676596,-0.21084376,-0.2830966,0.2116088,0.12156753,-0.21918361
G,-0.021997461,-0.1886071,0.18848695,0.40690592,0.17762308,0.114090174,-0.010459546,-0.19472693,0.044691563,-0.021624193,-0.19741532,0.23559627,0.071844205,-0.15723868,-0.20510048,0.12918268,0.066139296,-0.11569297,0.20227039,0.5016465,0.03272942,-0.043856632,-0.04123968,-0.25382876,-0.4450451,0.4095887,-0.112313,-0.02719881,0.1962148,-0.15243582,-0.257293,-0.200521,0.4536181,-0.05948193,0.29300126,0.09678653,0.10978082,0.080394395,0.74277663,-0.005752817,-0.11048008,0.22167462,-0.35077634,-0.12903221,0.08792056,0.010576613,-0.8583033,0.124767795,-0.2317887,-0.13181406,-0.14774376,0.32058135,0.107384056,0.31978416,-0.118244454,-0.6413816,-0.082260095,0.17775868,-0.0707792,0.129738,-0.110929675,-0.15081716,-4.994253,-0.2963605,0.1759767,-0.1810121,0.3323435,0.025562182,-0.22603117,-0.05432424,-0.002311401,0.094440706,-0.1619713,0.022963304,-0.08389157,0.3430653,-0.26086888,0.55752903,0.042524938,-0.06815987,0.58998567,0.0021636072,-0.18322685,-0.3074525,-0.022543535,-0.08552499,-0.15877149,-0.3144706,0.32872042,-0.46442884,-0.15959747,-0.017260974,0.30358016,-0.038161065,0.26613694,0.022252712,0.15278883,0.3085888,-0.019015465,0.08212003,0.23569687,-0.17775267,-0.28963447,0.05590118,-0.12466274,0.012100477,0.19486366,-0.058288347,-0.23543756,-0.025014665,-0.21499601,0.15179121,0.3698525,0.115412176,0.3702923,0.11711221,-0.1356986,0.002882149,-0.44779637,0.12725525,0.33145985,0.6294912,0.5902594,0.15743764,0.1436816,0.045379706,-0.14722149,0.31773648,-0.17723222,-0.2464788,-0.072096944,-0.11826417,-0.12115978,0.21298206,0.1468449,0.14724013,-0.12004061,-0.22125432,0.23619339,-0.061304227,0.08206806,-0.31822044,0.03255409,0.15929653,0.16836213,0.4880846,-0.16431698,0.14905275,-0.07949184,0.40179,9.085983e-05,0.0726375,-0.10076586,-0.01765532,-0.29862288,-0.09110236,0.069856904,-0.019877318,-0.25184196,0.32527614,-0.2144141,-0.5242352,0.026849302,0.2749864,0.0061873384,-0.2904226,0.3397365,0.3056381,-0.23695387,-0.46007523,-0.04910561,0.03420063,0.07487006,0.063582644,-0.07620463,0.23625623,0.24565715,-0.24181765,-0.48853898,-0.24789652,0.104643464,-0.13979186,-0.49258173,-0.10044821,0.22225793,0.23751964,-0.417754,0.09749925,-0.36779234,-0.4422835,0.0077971146,-0.16929114,0.14740628,-0.1583559,0.19788104,0.13303426,-0.04015619,0.23166807,0.52632886,0.15371804,-0.045366317,0.34917235,-0.077959806,0.31426814,-0.3458501,0.121800974,0.3287668,0.642015,-0.072544694,0.10978499,-0.18773845,-0.30752566,-0.23932528,-0.10202009,0.025544971,0.14793968,-0.2865548,-0.29690474,-0.08723626,-0.021272793,-0.5998163,0.14785041,0.16353749,0.14331043,0.20237844,-0.13346337,-0.15802862,-0.013767781,-0.099047475,-0.034008957,0.014979765,-0.22836424,0.18785912,-0.23119836,-0.21356887,-0.14854798,-0.009910956,-0.123040885,0.08357981,-0.2596711,0.17581987,-0.0016408116,0.27490997,0.0063071065,0.061074972,-0.2724707,0.051333487,-0.02498782,-0.014683399,0.13147044,0.3405334,-0.11671017,0.25673148,-0.003146843,0.071726985,0.16979668,-0.40259296,-0.014028352,0.24567541,0.09489216,0.015222326,0.04884886,-0.08613016,-0.1477108,-0.12343713,0.35993126,0.115521,-0.44020882,-0.03666649,-0.31341103,0.42569306,0.16117004,0.37684998,0.069590755,-0.04377371,0.36415806,0.49632722,0.30935484,0.37210986,-0.14361523,0.34266305,-0.2859809,0.12702867,0.21492659,0.14372273,-0.033502884,0.3028949,0.020334268,-0.10151596,-0.25897938,0.2351935,-0.16487291,0.037372366,0.17937098,0.6545646,-0.28660983,-0.013494972,-0.35648662,-0.2742535,0.32018632,-0.33108383,-0.11037665,-0.25480062,-0.27707106,-0.2514298,0.0096470155,0.27781928,-0.42360038,-0.083451666,-0.13695046,0.006901947,0.17794621,-0.39190096,0.26877922,-0.12355919,0.17241433,-0.15913528,-0.21851602,0.18521278,-0.27157626
M,0.2470459,0.06447759,0.10818279,0.5162648,0.18548028,-0.009809829,-0.33194596,-0.2861085,-0.14637701,0.08885322,0.004383227,0.24085894,-0.21725076,0.08770392,0.07420975,0.119836345,-0.14093703,0.36774567,0.14090313,0.11562011,0.028765356,-0.050249893,-0.35856676,-0.12988912,-0.053961337,-0.18139498,-0.15116209,-0.13776633,0.00026169047,0.030924592,-0.1717448,0.17366813,0.26655698,-0.21309666,0.26519144,-0.312229,-0.080234975,0.09932605,0.4354607,0.12807229,-0.17592366,0.37206474,-0.10118359,-0.042230647,-0.05209198,0.07799156,-1.0942882,0.09899616,-0.0988478,-0.1186302,-0.1503279,-0.153816,0.35422987,-0.13013016,-0.17015785,0.02171247,0.05308237,0.059025772,-0.031826004,-0.08707091,-0.3875444,-0.020283408,-5.214087,-0.118035965,-0.046685115,-0.2719853,0.2686372,0.13784575,-0.06624467,0.12613666,-0.19799459,0.29041028,0.008179714,0.20660777,-0.43198377,0.17828265,-0.29141307,-0.05445934,-0.23818432,-0.048556875,0.10692521,-0.17210357,-0.09961982,-0.33622336,-0.00040764734,-0.24891564,0.0049770325,-0.25691992,0.26780316,-0.18834154,-0.3099377,0.292899,0.11989996,0.14944093,-0.05715926,0.12785041,-0.012863621,0.37585524,0.26844215,-0.4188428,0.0701638,-0.001362361,-0.028259255,0.017822282,0.16306484,0.24142846,0.12615438,0.28270823,-0.25435883,-0.23619801,0.22343567,0.3478957,0.22703761,0.07182801,-0.12826599,-0.17809363,0.009361319,-0.12825435,-0.2930084,-0.081774384,0.33188164,0.12304691,0.2670234,0.110776484,-0.15540919,0.2445926,0.31632486,-0.11079042,0.05790727,0.13826375,-0.24164401,0.13742958,0.015542645,-0.2737412,-0.18574907,0.25005138,-0.17477606,0.01841031,-0.29013306,0.009125506,0.19078545,-0.17397395,-0.20666954,0.06329165,0.23382154,-0.23834518,0.16570301,-0.04123328,-0.42613503,-0.27201986,0.27368143,-0.15120766,-0.19147849,-0.29190803,0.15064782,-0.0436673,-0.010795563,0.06056611,-0.16083157,0.40062967,-0.13814776,-0.088178225,-0.030048542,0.1276051,-0.11425352,0.021381978,0.13943891,0.028515823,-0.099303,-0.0648648,0.08298304,0.01717987,0.15374747,0.11430649,0.061322287,0.33492956,0.52730244,-0.030316718,-0.47206885,-0.14470272,0.33478168,-0.2742945,-0.30985746,-0.18657199,-0.16330425,-0.08286754,-0.049850598,0.23999053,0.11348505,-0.050678417,0.266622,0.12385054,0.5178645,0.10371237,0.14067407,0.10041948,-0.20282501,0.31016493,0.23946494,0.14165276,-0.12643376,0.13900743,0.055994246,-0.1824661,0.098736785,-0.36359444,-0.14776397,-0.08003694,0.0064360015,0.41941738,0.1481149,-0.24015784,-0.4068617,-0.053740107,0.019754536,0.35868734,-0.08980268,0.08597789,0.3413786,0.17245296,-0.04176908,0.022805482,0.23681813,0.39216086,0.04610195,0.2239221,-0.19992091,-0.19797873,-0.26128465,0.13679376,0.25149414,0.042084187,0.28935942,-0.2666594,0.18516067,-0.13236877,0.16977927,-0.08060168,0.08623394,-0.09333799,0.11176942,0.10752165,0.0002877768,-0.15465774,-0.16503696,0.041751787,-0.0023643826,0.036625784,0.16333713,0.07979505,0.028374463,0.16007876,0.07905632,0.12456459,-0.42983076,-0.10197732,-0.2049546,-0.19195233,-0.10732425,-0.37870297,0.16452454,0.040936515,-0.24096692,0.2779601,-0.16955818,0.51825607,-0.120153196,-0.26433748,0.101162225,0.0753645,0.22055006,0.27425358,0.13575634,0.34484237,0.18734972,-0.42711672,0.09268218,-0.04009219,0.19958043,-0.21918632,-0.27510765,-0.03548768,0.47570026,-0.10355261,0.36561444,0.22428124,-0.0036241375,-0.022023119,0.16381095,-0.30552036,0.1720159,-0.20175853,0.1321239,0.09561461,0.059240177,-0.24787293,-0.03624265,-0.29023993,-0.15586737,0.2277253,0.06808155,0.15353629,-0.23981053,0.24376775,-0.2804673,0.1103428,-0.010276519,-0.1152187,-0.005948536,-0.2673165,0.007449408,0.01738029,-0.24191199,0.39181635,-0.00040500984,-0.07595563,0.15067849,-0.10357529,0.0999545,0.27972862
M,-0.09340897,0.0702308,0.12055256,0.148357,0.15191275,-0.21736723,-0.24038216,-0.3752872,0.033761844,0.25471675,-0.13245013,0.12901686,-0.36657006,0.25335097,-0.12796962,-0.13701135,-0.007050883,0.12053999,0.18882991,0.09814453,-0.011626866,0.05942019,-0.2788615,-0.12607816,-0.00027227774,-0.12659265,-0.04200053,-0.13704354,-0.18381909,0.017788824,-0.18306758,0.19278856,0.38499933,-0.2159036,0.19016269,-0.6106322,0.012054697,0.09256911,0.42239136,0.033735767,4.8930524e-05,0.30619556,-0.22553217,-0.07447267,0.035812415,0.18334794,-1.0694307,-0.018917907,-0.035685588,-0.2506499,-0.3931334,0.08714084,0.4822467,0.11915427,-0.13408016,0.053743802,0.05695238,0.1803552,0.18091214,-0.15113315,-0.25104204,-0.13097179,-5.2949157,-0.085200876,-0.09383479,-0.12895337,0.3196627,0.0055215433,0.11113441,0.13699622,0.039148882,0.16060098,-0.019929692,0.21484473,-0.29230088,0.30136773,-0.27490285,0.13076055,-0.21972345,0.008171288,0.21518175,-0.19813927,0.06116485,-0.3680099,0.042721402,-0.15411876,0.053954236,-0.08685394,0.13939518,0.053185187,-0.20830429,0.19190651,0.22422716,-0.011920571,-0.07395141,0.15173097,-0.11985766,0.35144162,0.31146693,-0.17442018,0.23552112,0.081532806,0.093506575,-0.14254291,0.089670405,0.42454085,0.11325036,0.04750584,-0.36541972,-0.36326942,0.19509482,0.3976558,0.23383005,0.063424096,0.09966109,-0.057360545,-0.11272246,-0.20835719,-0.12415824,-0.116518304,0.22655034,0.02928057,0.25964928,-0.03709548,0.0359582,0.21097362,0.2102792,-0.116826415,-0.038351886,0.20730677,-0.2511762,-0.17200103,-0.20302448,-0.25913104,0.23383898,0.0342621,0.14736965,0.089386456,-0.18593949,-0.099008515,0.24034046,-0.24676082,-0.028831907,0.28158587,0.19571006,-0.057957172,0.27830037,0.041204493,-0.5257396,-0.114750706,0.31596118,-0.05278663,-0.07124143,-0.15526731,-0.11591971,-0.20067963,-0.063848495,0.08814065,-0.2032716,0.22411257,-0.022831224,-0.087847516,0.07774369,-0.01700208,0.0009626262,0.047958285,0.10274196,-0.079099566,-0.22951911,-0.061377063,0.041110154,0.16069941,0.018972524,0.10701603,-0.07701059,0.38908365,0.4377043,-0.12201816,-0.31861177,-0.22664008,0.3150756,-0.19208202,-0.23047659,0.0022091286,-0.17222194,-0.052560464,-0.18835849,0.26488253,0.12568207,-0.092517436,0.2071719,0.14441288,0.595745,-0.12389,0.16625014,0.4611963,-0.21946509,0.2577253,0.16073805,0.1303549,-0.18793388,0.085256666,-0.013185067,-0.20375137,0.19590394,-0.12637107,-0.25639713,-0.20870553,-0.054276012,0.0739468,0.06551051,-0.43846077,-0.414179,0.14908111,0.10769996,0.16866127,0.018627463,-0.25884056,0.22128516,0.18133423,-0.09928782,0.12073882,0.29491898,0.29209125,-0.028616339,0.22672921,-0.06518303,-0.23596914,-0.2509303,-0.07503829,0.2572837,0.01502895,0.42463905,-0.27130875,0.13573813,-0.13040182,-0.017568983,-0.25217056,0.22638884,-0.08299979,0.27993816,0.13226001,0.13481759,0.0069925003,-0.17442521,-0.086467564,0.07638868,0.007998967,0.15695037,0.22006835,0.016061917,0.16495879,-0.026066408,0.31896713,0.024757408,-0.119225994,-0.14084052,-0.36081657,-0.14055215,-0.18167673,0.04117655,0.067172945,-0.12231903,0.10142677,-0.22283977,0.4203554,0.02494457,-0.19929777,0.09065825,0.15811929,0.23074107,0.35010418,-0.06637035,0.10233317,0.13645859,-0.3292804,0.20020358,-0.07953045,0.082118094,-0.22633436,-0.30298686,0.12501284,0.15558854,-0.0598922,0.20054543,0.06466089,-0.07122223,-0.01768826,-0.023549952,-0.03355126,0.32023352,-0.1500584,0.14879403,0.066258185,0.023287738,-0.15815905,0.016420279,-0.056951318,-0.043740384,0.079364955,-0.032054435,-0.0342866,-0.029345453,0.47527984,-0.18341613,-0.045446396,0.030029103,-0.14057787,0.13172945,-0.32527795,-0.23409396,-0.059714533,-0.061163355,0.06947728,0.04109831,-0.1456854,0.15798062,-0.016119868,0.10518603,-0.011061655
D,-0.23243935,-0.07862941,0.17848513,-0.025746414,-0.05007624,0.38281438,0.1766738,-0.2163641,0.18911016,0.1304776,-0.10663609,0.17316051,-0.3914658,0.329431,-0.08220275,-0.03898756,0.019485071,-0.30547574,0.035316937,0.45839727,-0.08082594,-0.040730186,-0.48216456,-0.20920913,0.14053166,-0.060411934,0.16216776,-0.15358742,0.060255088,-0.058091857,-0.14145003,0.16242653,0.12715156,0.2355293,0.32443577,-0.28688562,0.1109861,-0.1650323,0.6615873,0.06494074,0.035038106,0.33793572,-0.4292477,-0.22383933,0.25405774,-0.15614295,-0.8367455,0.24266176,-0.1307339,0.028360702,0.16084826,0.17589298,0.28211656,0.12179644,0.18769673,-0.1461381,0.0032380205,0.14683188,0.21382025,-0.0344516,-0.10611558,-0.09689769,-5.17321,-0.1594621,0.04671321,0.049339868,0.27082017,0.06200306,0.27678314,0.020834267,-0.027863793,-0.33340284,-0.13490357,0.13401459,-0.27264604,0.32843578,0.099040665,0.18292773,-0.20507315,-0.20513119,-0.010755062,-0.29367965,-0.40063825,-0.30560595,0.15902627,0.00826088,-0.19052628,-0.23718339,-0.07082721,-0.11455263,-0.08873891,-0.14469108,0.16845368,-0.005349934,-0.04988518,0.0032146797,0.22274995,0.11492202,0.16306557,-0.06306057,-0.11987959,-0.35217097,0.22582468,-0.079562664,-0.17793971,-0.05814022,0.21705216,0.2137497,-0.077800654,-0.27153575,-0.14931317,0.08223855,-0.025053322,0.14940058,0.049573667,0.16970931,-0.13532764,0.10767759,-0.11013616,0.2275466,0.2321307,0.1876247,0.14652044,0.15930906,0.12699409,-0.08104055,-0.18711117,-0.18330306,-0.42678997,-0.05656098,-0.19642442,0.18447727,0.23218371,-0.047618937,0.29197472,-0.10971993,0.22497493,-0.3263751,-0.46049923,-0.22383769,-0.15836765,-0.38344598,0.026289538,0.26896325,-0.14009057,0.12388803,0.06028329,-0.074481785,-0.332828,0.20702647,0.15653689,-0.17962047,0.093229696,-0.110002875,-0.18295626,-0.063980624,-0.078890756,0.08639778,-0.23798116,0.44359493,0.24587099,-0.4134728,0.22212186,0.15175825,0.036224328,-0.16248891,0.086145185,0.10098731,0.24700932,0.005861205,-0.025163962,0.028699176,-0.13010263,0.26087183,0.31902066,0.43399507,0.3847821,-0.5368967,-0.2921013,-0.085461065,0.21625704,-0.33643702,0.29073372,-0.14557086,0.27355683,-0.27116314,0.008331917,0.13335142,-0.025739491,-0.30052972,-0.05694987,-0.063532986,0.8281539,-0.14909458,0.16904119,0.40119857,-0.33338007,0.12195727,0.027202964,0.1389621,0.04775778,0.3929178,0.08876166,0.28562254,0.16220643,0.09922837,-0.076376356,0.16196592,0.20309597,0.3735331,-0.07459511,-0.3930466,-0.23870522,0.14307193,0.19643499,0.02979277,-0.08676798,-0.21218133,0.013888061,-0.05421951,-0.2654923,-0.24475871,0.38830107,-0.059855275,0.24468325,0.32416525,-0.08247684,-0.17557436,0.018906627,0.030261807,0.31906438,-0.12573269,0.17240053,-0.20170653,0.15727891,-0.0765727,0.22905904,0.019122377,0.34835225,-0.18259433,-0.17384866,0.30464625,0.3364455,-0.08865416,0.25960788,-0.19316794,0.02231132,0.07414229,0.08473952,0.28960764,0.094813436,0.3288208,-0.24390018,-0.071474254,-0.24599682,-0.024422914,-0.24754228,-0.054223035,0.122560814,0.16800517,0.029894017,0.059497938,0.13460054,-0.0013644937,-0.052853137,0.1243529,-0.008830103,-0.40967992,-0.03027638,-0.14815068,0.20098709,0.3337283,-0.07584958,0.15681192,0.002368845,-0.21831432,0.17461687,0.22775993,-0.03869687,-0.034928422,-0.23911694,-0.25337332,-0.025212497,-0.2336897,-0.054933865,0.06386866,0.013214849,-0.10844752,-0.28101733,-0.071636185,0.28383988,-0.10767837,0.3195324,0.028054245,-0.26002756,0.01639234,-0.19860269,0.008896574,-0.15572149,0.18310943,0.1947342,0.15699153,-0.06573815,-0.1742795,-0.514663,0.06148628,-0.14284663,0.12406875,-0.081705354,-0.12232261,-0.24535468,0.4042567,-0.047881145,0.08716269,-0.03937393,-0.13781764,-0.26866361,0.027026204,0.3081826,-0.16755916
C,-0.0039127534,-0.105268866,0.28483236,0.52325636,0.03029966,-0.11561835,0.16660032,0.05813177,0.0025309026,-0.15969044,-0.023566365,0.125965,-0.19898827,-0.09679616,0.024615359,0.062532976,0.16344205,0.23547378,0.22655496,0.23061192,0.16622812,0.08896651,-0.27344128,-0.2560297,0.049234264,0.18436214,0.32600012,-0.102944046,0.12273404,-0.059173208,-0.26630712,0.2059436,0.12713541,-0.11039856,0.28112435,-0.039996505,0.1380405,0.07484951,0.556637,0.38717875,-0.11589563,0.11046904,-0.006644532,-0.12545845,0.24614894,-0.07425803,-0.6724402,0.253491,-0.33917177,0.01855468,0.14213315,-0.12929033,0.026046894,-0.07301171,-0.081295975,-0.043297734,-0.22039625,0.32558402,-0.051237967,0.079409614,-0.2436816,0.14828753,-5.2138004,-0.4092754,0.15270385,0.23297527,0.3200685,0.13082072,-0.06648414,-0.10843328,-0.046915613,-0.16412908,-0.1807613,0.24566458,-0.41999546,0.07542634,0.09598971,-0.05096985,-0.056441337,0.022256508,0.20731619,-0.18937254,-0.11627902,0.21357638,-0.35467717,-0.39501834,0.19587329,-0.15286183,0.3310606,-0.29401976,-0.12121397,-0.040739663,0.18644316,0.022630304,0.17916268,0.17205176,0.056269288,-0.005750552,-0.016166782,-0.39291936,0.0032377224,0.0010433085,0.003826037,-0.07609088,0.08559453,0.12836438,-0.21776898,-0.07691071,-0.03289496,-0.28610513,-0.0044700466,0.47712445,0.19548285,0.24082011,0.050517466,-0.15988055,0.0002361089,0.05488666,-0.26400766,0.18736322,0.30918908,-0.2586113,0.0005324632,0.013418019,-0.5437032,-0.04101689,0.14263126,-0.106188685,0.17209938,-0.08874009,0.101892516,0.38233086,0.23221391,0.049377702,-0.0061195195,-0.1700943,-0.23372628,-0.061165027,-0.42892084,-0.14704068,-0.14607295,-0.13603687,-0.13145404,0.03888905,-0.16893801,0.12340398,0.28962317,-0.16020505,-0.1093817,0.40252903,-0.008720987,-0.06900619,-0.19227368,-0.2607208,-0.21366253,-0.22713903,-0.025679193,0.23682648,-0.29368085,0.4310604,-0.07587941,0.051944934,0.118446246,0.08835144,-0.17562403,-0.1782591,0.26584816,-0.29424208,0.24943756,-0.2715843,0.21881635,-0.065606885,-0.24695006,-0.16283734,0.12795326,-0.10058802,0.32788435,0.10823867,-0.36277547,-0.27714625,-0.008299217,-0.48663318,0.064527616,0.119221695,-0.07764248,-0.18305588,-0.08646906,0.36105433,-0.10318854,-0.19520833,-0.1106585,0.11348354,0.4126561,0.12600602,0.021687299,0.38799992,-0.526209,0.09173861,0.2767846,0.32691562,-0.21227568,0.2533081,0.41784284,-0.13844973,-0.26591945,-0.1168098,-0.059122622,0.41427252,0.27503848,0.55547166,-0.08951342,0.026877023,0.19688301,-0.013141619,0.044808045,0.14589459,-0.24425197,0.1739492,0.22869638,-0.18045652,-0.14256155,-0.033341672,-0.01560469,0.2224706,0.03499591,0.15961307,-0.20299862,0.27549148,-0.24474722,0.0051193014,0.4144361,0.11041482,0.104461856,0.038461562,-0.12898159,-0.16925603,0.040670037,-0.023910351,0.231961,-0.17892689,0.19220732,0.21692276,0.01233596,-0.014688734,-0.12787493,0.09658763,-0.20057775,0.113977656,-0.01944095,-0.28171787,-0.0077771917,-0.07067526,-0.16069633,0.057831407,-0.15702525,0.19591314,0.070889905,-0.21637768,0.050138824,0.0218032,0.15592341,-0.044089463,-0.08744605,0.1196031,0.122342125,0.21166556,-0.0971701,-0.21697058,0.09986888,-0.35538623,-0.07277033,0.19996953,0.04901971,0.0807996,-0.10909945,-0.07905257,0.14792462,0.20065114,-0.25474945,-0.32314888,0.22312249,-0.07960746,0.56863487,0.25606027,-0.015102677,0.34937674,0.2059586,0.012530789,0.019784424,-0.38858634,-0.0012113377,-0.029400535,0.30240145,-0.009379748,-0.52876997,-0.011521915,-0.16114226,-0.555315,-0.17177542,0.29307845,0.26212758,-0.05287765,0.15638247,0.08304822,-0.388302,-0.015503097,0.15556936,-0.07229429,-0.15038551,-0.3424704,-0.16259184,0.38163167,0.02451203,0.17531744,-0.03719835,-0.15081742,-0.10311031,0.058508936,0.12484084,0.08302851
K,-0.17087317,0.028181538,0.2361464,0.17791955,-0.023975179,0.07711351,0.25354457,-0.15201652,-0.3269041,-0.056216918,0.044309042,0.12143633,-0.15528122,0.08676216,-0.14962117,0.11281435,0.08728595,0.12809867,0.32577196,0.14456926,-0.105090894,-0.08451447,-0.3034331,0.022215081,0.08553408,0.033775777,0.08322391,0.10049626,-0.22152553,0.037856087,-0.033600695,0.26879823,0.08733998,-0.19286905,0.26486477,-0.09720644,0.23475865,0.0023881495,0.398013,0.49015814,0.07548532,0.27329212,-0.12828936,0.24390203,0.15794848,0.12812886,-0.52463627,-0.18219757,-0.026791533,0.12458268,0.124956116,0.42507762,0.10026346,-0.24995738,0.25790697,-0.28738415,-0.22683483,-0.046515297,-0.027116548,0.15450399,-0.013399894,-0.10099208,-5.3556676,-0.23811704,0.0033554696,0.07490587,0.1381331,0.093070954,0.0010547936,0.1033154,-0.32393807,-0.211936,-0.20487705,0.3510747,-0.2457884,0.2431685,0.17676206,0.100223735,-0.038879167,0.24735056,0.11711691,-0.041286033,0.15837544,0.10114834,-0.090607435,-0.4204176,-0.029532399,0.09095909,0.097628444,-0.19124816,0.02503318,0.07611343,0.22153087,0.33643374,-0.04473689,0.07811327,0.08538666,0.22117445,-0.054081157,-0.22340062,-0.012848377,-0.008695804,-0.40782884,-0.0914388,-0.012558417,0.29666924,-0.09127489,0.08208498,-0.24214582,-0.053449556,0.22249302,0.11808438,-0.15978105,-0.19980131,0.14877346,0.27778935,0.14228334,-0.05953543,0.22033909,0.10143007,0.15498663,-0.16417915,0.22222415,0.04918795,-0.2893301,0.10466385,-0.16709901,-0.020938322,-0.1718947,-0.029245451,-0.017740555,0.25575998,-0.03189908,-0.13800995,-0.22169727,-0.21498942,-0.052755363,-0.14696993,-0.30452016,-0.30799127,-0.02011453,-0.1774191,-0.05974029,0.005340459,-0.06420168,-0.073915556,0.06008727,-0.047715098,-0.26863363,0.08141267,0.086513504,-0.15688308,-0.2676196,-0.21946195,0.0034318753,-0.26901126,0.08818713,0.13336371,-0.3750235,0.36811978,0.078850105,0.013984526,-0.05322939,0.21446511,-0.11825213,-0.25425828,0.060521998,-0.04298427,-0.078755915,-0.07222943,0.085053064,0.17202993,0.16588315,0.17578082,0.003529206,0.0049474183,0.3009527,-0.18476722,-0.027010068,0.08535288,0.042750567,-0.30978498,0.18402101,-0.11881269,0.05693671,-0.08770164,-0.1606465,0.12937716,0.18857792,-0.29229286,-0.12408989,0.12313502,0.31880257,0.24601273,-0.19658488,0.07745716,0.046329528,0.14009793,0.1899881,0.37385967,-0.13265778,0.29557562,0.23635578,0.10994745,0.104034185,-0.33716637,0.06020565,-0.044362076,0.2317512,0.07295611,0.1099623,-0.36614576,0.023696914,0.26094604,0.102353945,-0.10959709,0.31319517,0.16671403,0.5257314,0.094245285,-0.30373418,0.0006215237,0.24278753,0.18668863,-0.08554236,0.36249518,-0.17921269,0.016184717,-0.24228236,-0.08890027,-0.13369401,-0.108270474,-0.14601032,-0.021947522,0.017075412,-0.04567702,0.4361835,-0.29305124,-1.14417635e-05,-0.13673753,0.29793784,-0.10109596,-0.07880351,0.10552616,-0.05104901,-0.25220326,0.14055428,0.13330285,0.19084965,-0.1140572,-0.028278477,0.30653954,0.14666225,0.07212691,-0.24664328,-0.25538945,0.010689219,-0.21121857,0.10545687,0.46340442,0.2926976,0.3330282,-0.07688987,-0.16257484,-0.09303583,-0.083935104,0.16756271,-0.4817749,0.00020191818,-0.14843288,-0.01961162,0.23650572,-0.0027446747,0.19011697,0.12898454,-0.15853009,0.13862033,0.14840148,-0.105694234,-0.17621095,-0.1788253,-0.13223192,0.46427146,0.047536932,-0.11549209,0.22248727,-0.031592242,-0.119761586,-0.059154987,-0.20873654,-0.17052943,0.06369525,0.072383516,-0.28333053,-0.19936217,-0.32786834,0.029018067,-0.47074568,-0.3444006,0.19471496,0.19161399,-0.1263886,0.046134025,0.053388536,-0.15307754,0.12965402,0.032554135,-0.1096926,-0.18705244,-0.2758174,-0.12185468,-0.021958519,-0.1890776,-0.07213533,0.029728748,-0.11175878,-0.005866304,0.17691737,0.303849,0.21686488
N,-0.16597159,-0.17343034,0.28576723,0.007281811,-0.012222625,-0.11302301,-0.21559416,0.06916977,0.061294213,-0.11509785,-0.4093586,-0.12319854,-0.32169166,0.2099759,0.1501505,0.040620655,0.16725484,0.039150957,0.2152223,-0.1168144,0.07088621,0.20804481,-0.17424046,0.0016620103,0.08651206,0.3172932,-0.019636735,-0.28130937,-0.16210204,-0.006090278,0.17146516,0.17262629,0.27018675,0.13406898,-0.056529652,-0.13756514,0.055945605,-0.39407182,0.49574363,0.08151288,-0.052069075,0.5062261,-0.2580895,-0.11048062,0.18775268,0.210181,-1.0811819,0.11865005,-0.13843077,0.043588847,-0.17456704,0.17449284,0.19598535,0.34913692,0.028769858,-0.3535961,-0.14097017,0.45261407,0.3204438,-0.00894893,-0.04417496,-0.21009654,-5.3001356,-0.17166758,-0.23780131,0.17678033,-0.0888741,0.16391088,-0.09575351,0.29735,0.059584506,-0.040733047,0.093113735,0.16957743,-0.22734591,0.05678834,-0.0513127,0.27581844,-0.14741498,0.15978453,-0.09969762,-0.17208657,-0.32898924,0.04011968,-0.28752398,0.09741306,0.2941227,-0.006986819,-0.09978123,0.20484872,-0.17743753,0.21408322,0.37640214,0.14366223,-0.16334201,0.08153108,-0.06380467,0.35550305,-0.07232667,-0.12986937,-0.17926243,0.1137318,0.20490125,-0.114278555,0.20664196,0.1251003,0.021802727,-0.005590059,-0.20828614,-0.11101127,-0.08973865,0.061941534,0.41292587,-0.3940053,0.042862423,0.39921343,0.03355722,-0.17046465,-0.032903895,0.0038629249,0.06373653,0.13696298,0.086652964,-0.21213625,0.5065964,-0.21528882,0.0030872375,0.042949915,-0.07775605,-0.0046336865,0.21743149,-0.17848556,-0.20483887,0.26103514,0.28658223,-0.032816097,0.34609008,0.07001646,-0.13422838,-0.121053904,0.08163269,-0.2828853,-0.05829714,0.1562548,-0.17843986,0.32395098,0.028955564,0.17480297,-0.3263227,0.045978136,0.118615165,-0.037162486,-0.30864453,-0.26369414,-0.38885072,-0.1607742,0.15050723,0.20050411,0.01000642,0.50306004,0.055746716,0.07678914,0.021866012,0.22301,0.21002547,0.13895121,-0.18562499,-0.1686801,0.01340123,-0.14486279,0.19684781,0.1904234,-0.0024244115,-0.02604196,0.050816357,0.3436492,0.21422881,0.0042550415,-0.17638673,-0.04963506,0.22177595,-0.17965823,-0.076366015,0.13115315,-0.18498684,0.15794006,-0.20616259,0.2380824,0.09917501,-0.22926754,-0.19151542,0.082090825,0.3790573,0.11692962,0.30706072,0.3091298,-0.23302405,0.09522967,0.21280321,0.060645476,-0.031973608,0.18474169,0.28453508,-0.14053093,0.022977788,-0.082491,-0.045267683,-0.15439807,0.054046564,-0.11077647,-0.0942063,-0.03072449,-0.017328072,0.1460313,0.24939609,0.09602353,0.021389198,-0.4348223,0.37973574,0.1007617,-0.47168583,-0.18216142,0.37287965,0.33005074,-0.19167937,0.064010516,0.036008574,-0.20694847,0.032044854,-0.115785524,-0.11269286,0.05144734,-0.3120229,-0.31500354,0.079672664,-0.139909,-0.068676546,0.0624249,0.2956281,-0.09007178,0.023683582,0.12659559,0.25423115,0.22592384,-0.22095737,0.0028177574,0.23192696,0.25186667,-0.15918833,0.18152931,-0.119469985,0.33080706,-0.4002772,0.21144956,-0.31323192,-0.185872,-0.24782597,-0.28140813,0.019504678,-0.005836636,-0.21342027,0.20478186,-0.23354945,-0.09800303,-0.037334364,0.19998887,0.21051395,-0.27499324,-0.11814594,-0.038359277,0.14264812,0.13170014,0.03764511,0.11537649,-0.18356156,0.06641349,0.15432996,0.06431621,0.17526999,-0.056189574,-0.15347351,-0.1264324,-0.0023100143,-0.22248453,0.18145728,-0.063962996,-0.03346522,-0.2082263,-0.26503113,0.015261613,0.1882782,-0.20688854,0.17199913,-0.017276421,0.14956611,0.09438967,-0.1253153,-0.14822547,0.039767787,-0.065915056,0.19607872,-0.118191615,-0.0070682466,0.15803352,-0.1471057,-0.16988207,0.011105243,-0.15983139,0.1180362,-0.046034154,-0.051254198,0.14404804,-0.14299421,0.0813198,0.07557997,-0.14759775,-0.13272485,0.19508372,-0.22369392,-0.26722804
A,0.23370683,0.10809119,-0.0772669,0.23111762,0.19830057,0.31036842,0.09143612,0.08311569,-0.13109417,-0.3119704,0.07602508,-0.03582451,-0.10957125,0.20309094,-0.111395806,-0.0904738,-0.09729465,0.2178387,-0.024964314,0.055307433,-0.18961518,0.11479764,-0.20497268,-0.025674812,0.23147579,0.24518359,-0.072340645,-0.09649321,0.107405305,0.162017,-0.31851903,-0.17300051,0.337353,-0.022764899,0.27184772,-0.39586037,0.059825502,0.0019364357,0.7761957,0.25920296,0.0075645014,0.5904763,0.1223729,-0.24015476,0.038096488,-0.0676437,-0.8683745,0.21682636,-0.06268418,0.007562395,0.16857657,-0.13723601,0.32177028,-0.18024814,-0.005108632,-0.2417828,0.1662927,0.07642028,0.11578267,0.015894696,-0.09605285,0.1457799,-5.1072297,-0.14994588,0.27531552,0.03245996,0.3150869,0.035368547,0.23480156,0.16964357,-0.17820062,0.01119085,0.15553407,0.16313195,-0.35496825,-0.1146617,0.14471579,0.32515022,0.05926005,0.18557352,0.5458556,-0.4052374,-0.21585763,0.17682026,-0.24286434,-0.4651788,0.0507366,-0.054624975,0.19173872,0.24135196,-0.27291843,0.3720124,0.10925337,-0.11935502,0.17723835,0.20041293,-0.014128376,0.26044533,-0.2328542,-0.25265184,-0.19004796,-0.19406447,0.0894395,0.22239415,-0.22436422,0.1167974,-0.3353824,0.4060167,-0.18672812,-0.32457948,-0.06453799,0.14266063,0.09359723,0.015867427,0.045148958,-0.26181933,0.010390177,0.032102987,-0.2395972,0.15176938,0.14969537,0.12618569,0.36090368,0.22560707,-0.15952855,-0.28723598,0.14305837,-0.31186762,0.19060425,-0.1802517,-0.12990096,0.15131575,0.25057173,0.19384095,0.10277726,-0.36055508,-0.30272073,-0.018981837,-0.07487568,-0.17205505,-0.03660371,-0.30559868,-0.046702202,0.44995934,-0.14513351,0.1034043,0.034748323,0.031827245,-0.15682626,0.2572405,0.16976345,-0.41365108,-0.3511685,-0.13533688,-0.300117,0.009293672,0.30909437,0.08682134,-0.030260392,0.50851756,0.16570053,-0.27485016,0.24000978,0.306164,0.035100512,-0.251435,-0.11727877,-0.2605756,0.07798237,0.048197642,0.37346542,-0.05178286,-0.14038509,0.14859477,0.26070654,-0.17934015,0.5536172,-0.04472337,-0.119531155,0.015790492,0.1375073,-0.3653067,-0.04491502,-0.1829727,0.31242803,-0.11079417,-0.3886687,0.15962633,0.17687666,-0.041997127,0.24881661,0.14217252,0.49368274,-0.13883325,0.009802505,0.26712513,-0.059298113,-0.08207602,-0.06975201,0.38939014,-0.17400324,0.37039566,0.38104773,0.24062476,0.10014944,-0.36608803,-0.17759283,-0.009902554,0.1901388,0.14224903,0.001550816,0.012919504,0.040299557,-0.105010815,0.065439954,0.08215614,-0.03170926,0.031601667,-0.10576804,0.124574766,-0.17151949,-0.0310875,-0.052922443,0.07745451,-0.0012014955,-0.18933205,-0.02474406,-0.050996415,0.07540234,-0.019425564,0.18758616,0.34720528,0.36953998,-0.49312884,0.5610987,-0.044999316,0.3527348,-0.025780015,0.16010253,-0.2743272,0.057589784,-0.029207036,0.18129042,0.17834623,0.13128817,0.039439738,0.24297921,0.18927556,-0.08658593,-0.166465,0.16890945,-0.119307965,-0.6106119,0.5448602,-0.14784268,-0.06461522,-0.2312721,-0.046839565,0.08990703,-0.21213683,-0.04794564,-0.1082227,-0.06178812,0.1123995,0.20639616,-0.20260759,0.0044897273,-0.3094321,0.22320357,-0.2904752,-0.11100135,0.118918076,0.07919581,0.3653869,-0.1913577,-0.035689168,0.12520558,-0.107960045,-0.27913004,-0.19142379,-0.1904406,-0.20743045,0.16446914,-0.038235784,0.29262078,0.56368744,-0.14425586,-0.26380116,-0.20967083,-0.26682907,-0.085410446,0.14640743,0.17392452,-0.35497415,0.25152108,-0.28251863,0.1736486,-0.17020944,-0.3455931,-0.05592835,-0.101536065,-0.24515703,0.024246369,-0.104764834,-0.46233734,-0.05577126,0.121167585,-0.6470805,-0.106176466,-0.3098003,-0.15439016,0.07043287,0.26357353,-0.092314035,-0.25462562,0.029217489,-0.47217578,0.27704751,0.03556881,-0.20230754
